GIS
1
0.0
2
merge
dontMerge
3
4 0
274 0 1
70 1
348
overlap=Crime:5
overlap=Time-Within:4
overlap=Time-Within:3
conflict=Entity:4
anchor=violence/n
conflict=Sentence:0
anchor=thrust
anchor=sell
anchor=come
anchor=release
anchor=ambush
anchor=targeted
overlap=Target:5
anchor=arrest
conflict=Destination:0
anchor=sue
conflict=Destination:3
conflict=Destination:4
conflict=Destination:5
anchor=fracture/n
subtype=Injure
overlap=Victim:5
anchor=throw
subtype=Elect
subtype=Charge-Indict
conflict=Agent:0
conflict=Agent:1
anchor=battle/n
anchor=shoot
conflict=Agent:5
overlap=Instrument:5
subtype=Fine
subtype=Phone-Write
overlap=Instrument:0
subtype=Meet
overlap=Instrument:1
overlap=Instrument:2
overlap=Instrument:4
conflict=Target:0
conflict=Target:1
conflict=Target:2
conflict=Time-Within:1
conflict=Target:4
conflict=Time-Within:0
conflict=Target:5
overlap=Attacker:3
conflict=Time-Within:3
distance=3
overlap=Attacker:4
conflict=Time-Within:2
distance=2
conflict=Time-Within:5
overlap=Attacker:5
distance=1
distance=0
conflict=Time-Within:4
distance=7
distance=6
overlap=Attacker:0
distance=5
anchor=deliver
overlap=Attacker:1
distance=4
overlap=Attacker:2
anchor=divorce/n
anchor=sentence/n
anchor=overthrow
distance=8
distance=9
conflict=Time-Holds:0
anchor=loan/n
subtype=Convict
anchor=invasion/n
anchor=bankruptcy/n
subtype=Die
anchor=down
overlap=Giver:5
anchor=wound
subtype=Trial-Hearing
anchor=be
anchor=bombings/n
anchor=elect
overlap=Vehicle:5
anchor=destroy
overlap=Buyer:5
conflict=Org:5
conflict=Org:2
anchor=resign
conflict=Org:1
anchor=explosion/n
anchor=conviction/n
anchor=charge
anchor=call/n
anchor=targeting
subtype=Arrest-Jail
conflict=Org:0
anchor=take
anchor=appoint
subtype=Declare-Bankruptcy
anchor=lose
anchor=acquisition/n
anchor=injury/n
anchor=arrive
anchor=retreat/n
anchor=seize
conflict=Attacker:1
overlap=Crime:4
conflict=Attacker:0
anchor=marriage/n
anchor=die
anchor=assault/n
anchor=parole/n
anchor=convict
anchor=release/n
subtype=Sue
conflict=Attacker:3
conflict=Attacker:2
conflict=Vehicle:0
conflict=Attacker:5
anchor=appeal/n
conflict=Attacker:4
anchor=war/n
anchor=fracture
anchor=travel/n
subtype=Demonstrate
subtype=Divorce
anchor=charge/n
anchor=engage
anchor=shot/n
subtype=Release-Parole
anchor=rape
anchor=fight
conflict=Crime:5
overlap=Defendant:5
overlap=Defendant:4
overlap=Defendant:1
anchor=trial/n
anchor=birth/n
anchor=trip/n
anchor=meeting/n
subtype=Sentence
overlap=Artifact:1
anchor=attack/n
anchor=sentence
anchorMatch
anchor=hit
subtype=Attack
overlap=Target:1
overlap=Target:0
overlap=Plaintiff:5
anchor=injure
anchor=get
anchor=give
subtype=Transport
anchor=probe
conflict=Recipient:5
anchor=drop
anchor=dead
anchor=go
anchor=kill
subtype=Appeal
anchor=fire/n
anchor=open
overlap=Artifact:5
anchor=acquire
overlap=Time-Within:0
overlap=Artifact:3
overlap=Adjudicator:5
overlap=Time-Within:2
overlap=Time-Within:1
overlap=Time-Within:5
anchor=head
anchor=wedding/n
conflict=Defendant:5
anchor=battery/n
anchor=summit/n
subtype=Marry
conflict=Position:4
conflict=Position:5
overlap=Person:5
anchor=letter/n
conflict=Victim:5
anchor=warfare/n
conflict=Victim:2
conflict=Victim:1
anchor=arrival/n
anchor=death/n
conflict=Defendant:0
conflict=Defendant:3
anchor=wound/n
anchor=detonate
anchor=nuptials/n
anchor=move
anchor=fly
subtype=Start-Org
nomAnchor
subtype=Start-Position
anchor=enter
anchor=grab
anchor=suit/n
anchor=cut/n
anchor=deadly
conflict=Seller:1
anchor=conflict/n
anchor=launch
anchor=guilty
anchor=ceremony/n
anchor=attack
anchor=war
conflict=Instrument:4
conflict=Instrument:5
conflict=Instrument:2
anchor=fire
conflict=Instrument:1
anchor=step
overlap=Destination:1
anchor=strike/n
anchor=fighting/n
subtype=Transfer-Money
overlap=Destination:4
overlap=Destination:5
anchor=raid
anchor=airstrike/n
anchor=bomb
conflict=Adjudicator:1
overlap=Agent:5
anchor=fine/n
overlap=Org:5
conflict=Entity:5
conflict=Adjudicator:5
conflict=Adjudicator:3
anchor=blast/n
subtype=End-Position
conflict=Entity:3
anchor=hurt
anchor=marry
overlap=Agent:2
anchor=election/n
conflict=Entity:2
conflict=Entity:1
overlap=Agent:0
conflict=Entity:0
anchor=suicide/n
conflict=Origin:0
overlap=Entity:5
anchor=shooting/n
conflict=Origin:5
conflict=Artifact:5
conflict=Origin:1
anchor=shell
anchor=resignation/n
anchor=try
conflict=Person:1
conflict=Person:0
subtype=Transfer-Ownership
conflict=Person:5
subtype=Be-Born
anchor=incursion/n
anchor=assault
anchor=purchase/n
overlap=Place:4
overlap=Place:3
overlap=Place:2
anchor=drive
overlap=Place:1
anchor=blow
overlap=Place:5
conflict=Place:5
conflict=Place:4
conflict=Place:3
conflict=Place:2
conflict=Place:1
overlap=Place:0
anchor=crossfire/n
conflict=Place:0
conflict=Buyer:5
conflict=Plaintiff:5
anchor=combat/n
anchor=strike
conflict=Sentence:5
conflict=Destination:1
anchor=defend
anchor=confrontation/n
anchor=execute
conflict=Agent:2
overlap=Seller:5
conflict=Agent:3
anchor=murder
anchor=goto
anchor=live
conflict=Target:3
anchor=invade
anchor=confront
anchor=toll/n
anchor=hit/n
anchor=meet
anchor=use/n
conflict=Giver:5
anchor=departure/n
anchor=smash
anchor=withdrawal/n
subtype=Execute
anchor=flee
anchor=visit
anchor=leave
conflict=Vehicle:5
anchor=journey/n
anchor=use
anchor=send
anchor=push/n
anchor=deploy
conflict=Crime:4
anchor=execution/n
anchor=assassination/n
conflict=Money:5
anchor=casualty/n
anchor=fight/n
anchor=raid/n
anchor=airstrikes/n
anchor=quit
anchor=demolish
anchor=shootings/n
anchor=pound
conflict=Victim:0
anchor=firefight/n
anchor=resistance/n
anchor=draw
conflict=Seller:5
anchor=force/n
anchor=poison
anchor=hammer
conflict=Instrument:0
anchor=travel
anchor=terrorism/n
anchor=funeral/n
conflict=Artifact:1
anchor=hypnobirthing/n
conflict=Artifact:2
conflict=Artifact:3
overlap=Entity:2
conflict=Artifact:0
anchor=previous
conflict=Origin:4
anchor=firings
anchor=bring
anchor=punch/n
anchor=lawsuits/n
anchor=punch
0.7572969763624752
1.557474697350956
1.4993932090183875
1.7909768278274767
-1.3820551269498604
0.09651417072090646
-1.6161615098429796
0.3911099708921316
-0.5170660770357216
0.08413579216592798
-1.1169594890964198
0.4566678601603715
-0.023101399693767316
0.036448722364188633
0.022455474658412702
-0.010992097874772526
-0.35254512843470404
0.13582600604207945
-0.3024287417720716
0.13995876641986174
0.49894192728987424
-0.3134422169028539
-1.0427606066564923
0.3409072308817619
-0.47181440661578583
0.08211480946173737
0.004619995050050459
0.025427446379833647
0.0725273658691061
0.004502726735337108
-0.5543789357546972
0.14380810120130996
-1.2154437923385955
0.12203479886836589
0.6516425566967279
-0.17082971748573078
-0.43311094627568136
0.13060197342969443
0.8450669824348938
-0.7689258439797089
0.7115614079283742
-0.3870940193854845
0.05506897340223071
-0.04010016157330322
0.23874983540582057
-0.1250740759705261
-1.3690402091191198
0.1107198848602365
0.49395528834643715
-0.022378697707794593
-1.9513839135289979
0.1273835885043521
-1.3748852467061552
0.14844658091284535
-1.778865610914218
0.10350464498698625
0.2884226241767122
-0.23407269991063434
-0.22249871493149176
0.25486159410091336
0.20506498472064902
-0.2139092256772876
-1.8109411879431099
0.27810250431040634
-0.346208188176441
0.1166580996438092
-1.6983211014177289
0.3336895912709096
0.42647033169441856
-0.10167440605355513
0.15003673485717173
-0.09936791120670171
0.26521405265826486
0.019670725434579112
0.13941076737494285
0.02485957934931429
-1.5944173021369217
0.10119555696473488
0.11950323993287441
0.020212070454679234
0.046328951978414364
0.03040340083485244
0.16830705835462853
-0.018539619245164646
0.12161072665479875
0.02003207358718827
0.975599494998803
-1.5955643635298098
0.24021890210091093
-0.0329223484903743
-0.6162562063122868
0.1515235436792687
0.6656443016236273
-0.4489669233659704
0.30935488522171734
-0.013348041750841696
-0.7878534197646639
0.17946474323055772
0.05727549756117683
0.026285525109382212
0.7098516400065272
-0.39013479433316756
-0.25344138574624203
0.09185930463020452
0.39046261245578295
-0.38248056874049663
-0.7030287651253134
0.07990971354668917
-1.633228776943244
0.2069794466350085
-1.1793076103776858
0.16274165530192333
0.6739543814327401
-0.06867734544594362
-1.1475184112107213
0.19517157751178285
-1.1623416222523815
0.4800695904486941
0.8056857291785986
-0.6358379010096742
-0.8486496162647571
0.18473049147328285
0.5974793789959312
-0.22920978196221467
0.3575508662211546
-0.36862247617663696
0.31031347094630907
-0.32814852529210664
-2.6936375989208416
0.22319947393324083
-1.1766147237393452
0.17874206902171075
-1.6976373830932632
0.16401769945628455
0.9935241031878899
-0.8730025634897526
-0.16805810919981026
0.07858413708646658
0.3096128692509353
-0.3015826437067173
-0.6659520702957595
0.11990917665228315
-0.15821268731511726
0.19511794391976292
-0.5915333834551108
0.11901536558895319
-0.24181803598854953
0.0929698882131407
0.29113519127777365
-0.34304798064246594
-0.5131914144450591
0.12831635775187872
-0.2473573571158376
0.15080506724080425
0.113810834487742
-0.0492892003244449
-1.043490822541986
0.15250161793012623
0.5003654792909934
-0.7919164654611702
1.282792142865984
-1.4053443554536529
-0.732168174055657
0.11566954214921461
0.6035408838191966
-1.6558756506883117
0.015722628229446055
0.029576343018751023
0.07345359166648145
-0.06937569278829119
-1.005778854875812
0.23937599659648445
0.07907356819768674
-0.07434978630179559
-0.26009992408742016
0.07552401209656961
-0.7714903367574876
0.2989718206253641
0.06180412541366857
-0.023477884634141778
0.3097261319385435
-0.6380638794953772
-0.16650410996655843
0.06381521622907528
-1.4127825347893592
0.6033665784246507
-0.034663881178026226
0.0323284138564349
0.0562236079735543
0.022716775604953714
-0.8655109125559726
0.22391428453459325
-0.08837461069495739
0.1239558559895614
0.8048335734566382
-0.260221960275182
0.5875824630223199
-0.4887910258579518
-0.8852663355072423
0.15513785180371598
-0.5744218383719266
0.09095903775527528
0.29970852651510566
-0.07651371092108177
0.6678779048472574
-0.1726732565580441
0.1846504774054237
0.01735864803328599
0.006011602038473007
0.22785069672436548
0.2809039613008421
-0.01340589120051524
-0.4939976575716712
0.1256653264575157
-0.5951544547618187
0.15413156437933104
-0.6058174971637638
0.13665043781067823
-0.3965247765177217
0.21637990697224016
-0.2638435192790945
0.1431342456060428
0.5944842782239459
-0.259120823356116
-0.31370251935385296
0.09040239515860189
-0.5110077970905749
0.08204853133701605
0.17685535722401724
0.033694490923974946
1.9925606947800767
-0.2604930545532143
-0.3527630749850271
0.06762050814639704
0.3953284718281011
-0.2707448790570073
-1.0752132599023652
0.11582216163045632
0.1145305091421849
-0.002941712693912967
-1.8866859032846774
0.4665315454398512
1.382008740761496
-0.17843423528440927
-0.08123714792177143
0.1797142918208259
0.248021338355421
-0.1881492601273072
0.26786146905873637
-0.18037593450830242
-1.6039109947112327
0.2145492319072357
-0.34379578974720004
0.07321067020191559
-0.08305544604404604
0.05125546270063438
-0.27212810611344435
0.10662087332949177
-0.5607302090164047
0.10465378307029043
-0.3117913089476304
0.14613781348428634
0.37373433163458364
-0.3624381251119783
0.4995302277265797
-0.6496440883519905
0.6379227174666036
-1.0127261799635652
-0.1877725978023231
0.11728563741555877
-0.12157140596521739
0.058253823203283685
0.41963824434636277
-0.17253278500200395
0.16252986875107556
-0.08771417770037594
0.022367282502216996
-0.014134151401181011
-0.9593598885374126
0.13232136950565074
-0.9391462543535278
0.12168260048303485
0.20829107408251984
-0.11428338693416183
0.8629896280022012
-0.4997899900210383
-0.9381218883029403
0.14563074741013135
-0.9271369465729047
0.14545929646717373
-1.448138236955485
0.371379843741418
0.703660541594019
-1.202088177458217
1.2132532858324825
-0.8991321461745837
-0.19363274348389717
0.06830720552619945
-1.8079392029302972
0.15721035713697518
-0.741322530648765
0.16736677828151497
-0.5343895762804913
0.10357108540060164
-0.3594175688005759
0.10115948263790292
-0.2736385329873462
0.0901383148907653
-0.6888669598126961
0.1401465390075175
0.16596634641476118
0.032113852531672114
-0.2104827700631153
0.06812234866744732
-0.8740394741421779
0.13348561707001302
0.0027327109757837673
0.005565306113270713
-0.966949015754211
0.10978130496568125
0.20891214628610924
0.0013578181524390837
0.5318697320579638
-0.19577943508847168
-0.6922118561481958
0.26752711831329457
0.1172451933814533
-0.061500550034886525
0.24509357033310836
-9.727400652574473E-4
0.36692570166664534
-0.21766721324783067
0.5167963473072298
-2.2268900176588415
0.24497941855302138
-0.1646302163033199
0.5714315684318954
-1.0074391070815676
0.7014746131851234
-0.15830138555591333
0.05739894986126266
0.011722799421183894
-2.0976951479104278
0.2154603807848767
0.39279277944946456
-0.045974799401295105
-0.07160917047396902
0.035791333031215566
-0.41804652632462436
0.11698948786973744
-0.12383272962931743
0.05802078986925821
-1.5349303638210738
0.18698746304746602
0.8394148664078365
-1.0971728658238658
0.34294973663864825
-0.3859286639254019
-0.8078150906902607
0.09876820947236238
-0.8874070949672681
0.10883458724305334
-0.8185554527681599
0.16855218884389533
-0.46863122708912924
0.11740988759945707
0.898601062134029
-0.12960632981298
0.18252302175194351
-0.007698949954015521
0.8092369910416624
-0.6683420476668154
0.04047017124199683
-0.02031688174606508
-0.5690116030806482
0.21670967120927437
-1.6169030120225294
0.15905115055242985
-0.15442570633317887
0.05809357228429962
-0.9685313702027308
0.11929259477907687
-0.19912076520816305
0.0662280375154388
-0.6394605877343656
0.31175361085298475
-0.20876738519471838
0.06690393699096175
-0.9540837865140119
0.36706696597435823
0.6492174286380794
-0.03136666870471888
-0.8007725259256678
0.25256603432741487
-0.044466918606956125
0.052495924670688913
0.34230208485839575
-0.08997829229197193
0.25206119147188577
-0.03162802922216861
0.27118068374730087
-0.17797456617331042
0.12283352340805158
-0.05161368604180927
-0.5173719878953076
0.09828214636604946
0.09400038449793502
-0.008200469881023359
-0.8517238569099568
0.1576883342369347
-0.6314806205395779
0.15967104200045845
0.08100379593212725
-0.013083755758954582
-0.21147314439081902
0.061575832627042915
-0.7727721855278055
0.08928251326157129
0.36956197597528734
0.029977877904310578
-0.6099758194330289
0.11124670413269522
-0.8602803841391208
0.07881444348474793
-0.1706962300153944
0.0869877413508649
-0.8108878882603481
0.17765318653221
0.1348232666706187
-0.00564844695129729
-2.7510050980662992
0.14838705760001403
-0.25669280434022124
0.11597729087955506
0.4477693158062278
-0.24653518409578506
0.6595177766372798
-0.16309626005126363
-0.1806060522060073
0.07752991852807134
0.6432655670801847
-0.019216942032838667
-1.084526949076547
0.156939614361012
-0.9436932703845744
0.2933933909757544
0.21140614738709967
-0.08945555558480184
0.5767395511962912
-0.7097785271917009
0.45822117859149347
-2.3634297515977587
-0.07888115316876049
0.03784436114108371
-1.1025567335448672
0.4104861301699124
-0.5642129039282207
0.426695768580904
0.40116902767835616
-0.0476150764589559
-0.7560789708312913
0.23467713809375393
0.06481748783198907
-0.03460593592129218
1.2188081370907906
-0.17302311524272027
-0.9285536108388138
0.20383972360049588
0.351435840791021
-0.7218756409712676
0.07245327923160484
-0.056162781812981635
-0.5374975024636206
0.11089128650060709
0.09316076071469864
-0.08209506087890901
0.5265437044999887
-0.9634705744901914
0.30288566531399524
-0.15786473266197967
-0.9750677928431525
0.1719523723750343
0.5536543125548318
-0.10096026779548208
0.14242020949963594
-0.08545316057479388
0.7459997304968135
-0.1459340542143865
0.12853423284081406
0.039770734929539614
-1.016911614211113
0.11851600704701845
1.7627287292332672
-0.4292312214762185
-1.2106905622795698
0.1662450492616986
0.7424674302874391
-0.5965067869471441
-0.7247786875723174
0.3135771531295596
-0.5551142529695828
0.17341122750067098
0.44872757832983245
-0.6014271221265545
0.06660555052593095
-0.023102816072251932
-0.4892944447365821
0.1287410016273717
-0.5297226482879882
0.166167184013629
0.9748493513958728
-0.1869544662945581
-0.4980681276735901
0.12922681854761062
-1.2887462135239716
0.5459495821872618
1.0468605724835809
-0.6699198276611278
0.37237963271966473
-0.1933025269041636
0.06398364628504816
-0.011695166151519451
-0.011389077933132232
0.04424576291089689
0.5502141689067592
-0.3434472000836592
-1.4998148893630845
0.09712220445412127
0.7225229964509989
-0.40191378451352894
-0.4874752433573938
0.07733949587191945
-1.1486511275867688
0.11683330331943503
-0.02463127000856409
0.04672039374626702
-0.11284275832623632
0.05345364586303861
0.13917666519554533
0.01584096802981834
0.6480314295255402
-0.39017895980583994
-0.830356077083839
0.08441283010543334
-0.7019892831539449
0.10334283127832514
0.020904152181857465
0.008759710691523247
-1.0779678166042597
0.18553990179279017
-0.32388739779890574
0.07919658763949892
0.5047594949655805
1.1712863796186783
0.3984572421156789
0.37634494121303536
0.6100732933435734
0.746328933443911
0.40053090150679316
0.8316155634648328
0.5498719695096405
0.4642977820089859
0.29228586972780923
0.20326816029196407
0.25919470630143193
0.48444328215804383
0.615540644932429
0.32359397473401785
0.5482090650282379
0.6471464950658671
0.5884073087799876
0.5649055382283404
0.6528470271675131
0.2609306690395408
0.39860102155367205
1.2369913460483994
0.7177955971073169
0.591476415674336
0.5825869577431689
0.21449873358787347
0.4769553281668501
0.5063699674193316
0.3490430284291487
0.19049970181632273
0.28018853826588697
1.0606730852790396
0.30286685928896695
0.26587191629952484
1.1487936503759046
0.1850046998601793
0.5108813231526406
0.40386773638113205
0.16859406055953566
0.47765315285843934
0.3289857511954188
0.5204272592728388
0.6287749237605995
0.4553141251264956
0.4703481235562559
0.3786908812160389
0.3608919731985553
0.514978962524665
0.6287234615940365
0.4736948169424251
0.4662887735528194
0.3328060756305526
0.5548621711037032
0.776593061609144
0.26555516649997674
0.37373307444106646
0.747268424482534
0.5522762021982499
0.35186887236583586
0.36284992525330995
0.338951294089004
0.44237204206256203
0.5267042877553866
1.1000885286071782
0.498211004490553
0.5040251728762292
0.6708627108420331
0.30635310783400566
