GIS
1
0.0
2
noEvent
event
2
324 0 1
28 1
352
fight
gunfire/n
visit
trip/n
custody/n
roll
married
terrorism/n
visit/n
appeal
award/n
serve
advance/n
removal/n
vote
prosecution/n
craft/n
deadly
meet
bankruptcy/n
marriage/n
loan/n
move/n
discuss
extradition/n
eliminate
meeting/n
try
go
charge/n
born
face
harm
election/n
raise
give
use
sentence
deploy
support/n
run
sentence/n
contribution/n
call/n
lob
critical
fight/n
strike
leave
way/n
sicken
threat/n
left
donate
postwar
parachute
install
conflict/n
beat
prosecute
compensation/n
wed
come
join
violence/n
jail
kidnap
employ
fire
replace
sit
new
slice
detain
talk/n
battery/n
provide
attend
battle/n
seize
drop
become
mission/n
close
striking
march
action/n
blast/n
future
overthrow
capture
parole/n
dead
marry
collapse
be
apprehend
wedding/n
execute
demonstrate
forum/n
death/n
reward
get
fall/n
select
release/n
poison
birth/n
sweep
waste/n
sign
war/n
telephone/n
battle
attack/n
walk
pound
invasion/n
grab
conference/n
raid
sue
donation/n
divorce/n
use/n
set
catch
land
retire
purchase
former
hang
discussion/n
destroy
reach
throw
sale/n
shut
push/n
patmatch=2
name
patmatch=3
patmatch=4
pay
talk
smuggle
cease
explosion/n
win
mail/n
air/n
money/n
draft
patmatch=N
charge
suit/n
designate
take
wound/n
transfer/n
approach
blind
unborn
genocide/n
resistance/n
bring
fracture
abuse/n
open
crumble
withdrawal/n
rally/n
assault
fine/n
jihad/n
fighting/n
carry
move
pay/n
arrival/n
transfer
elect
form
protest/n
end_up
hold
interview/n
guilty
assault/n
create
shooting/n
flee
start
shoot
appeal/n
campaign/n
boost
journey/n
compensate
abandon
raid/n
cross
pardon
hit/n
put
remove
ship
merge
launch
retired
phone/n
build
quit
wound
probe
clear
slaughter/n
hearing/n
conviction/n
engage
transport
sell
injury/n
withdraw
retreat/n
acquire
steal
desert
hijack
stay
return
strike/n
injure
greet
demolish
clash/n
torture/n
combat/n
detonate
resignation/n
fall
stab
attack
travel/n
send
convict
filings/n
buy
launch/n
intifada/n
introduce
kill
show
shot/n
travel
skip
explode
target/n
trial/n
hit
control/n
head
hire
torture
work
activity/n
negotiation/n
indict
accuse
murder
summit/n
uprising/n
enter
shape
jump
targeted
arrive
injured
letter/n
casualty/n
fly
smack
bomb
violent
chop
release
suicide/n
defeat
call
targeting
protest
appoint
appointment/n
dismantle
murder/n
grave/n
war
push
arrest
die
warfare/n
departure/n
receive
blow
find
merger/n
retaliate
expel
gift/n
fire/n
smash
sailing/n
spend
lose
hurt
evacuate
rid
killing/n
terror/n
haul
advance
step
found
firefight/n
lawsuit/n
execution/n
write
lawsuits/n
assassination/n
arrest/n
divorce
bombings/n
demonstration/n
indictment/n
airstrike/n
shell
deliver
drive
acquisition/n
resign
march/n
rape
died
incident/n
punch
airstrikes/n
invade
dissolve
ambush
ceremony/n
aid/n
0.4050152706901009
-0.0028476373928150167
-0.23662869302220113
0.4867584977420572
0.5918285698729369
-0.6983357339955345
0.6429028822583702
-0.8865155593164029
1.1693699364934669
-0.9948114557764636
1.016605438263144
-1.1729278544962476
0.5929542792294411
0.03821079939361083
0.16178052389947606
-0.015311526087442795
0.5896029548643986
-0.37895519152935186
0.7118183397098281
-0.611274247900284
0.39171133614931086
-1.1674337685469904
0.26222005824325745
-0.08626881580166268
0.8557736652400819
-1.3373081116524692
0.5790923197485596
-1.0343497173773966
0.27631634162069596
-0.6065227196549015
1.1213685868703172
-0.6373476972914488
0.655583296174003
-1.5790766104607936
1.1693699364934727
-0.9948114557764577
0.0163133764395329
0.002659152848041524
-0.30117804507996304
0.2754805865753076
-0.5318367422209151
0.2997141390631455
0.5279374579886182
-0.036838860962064235
0.7847045547026585
-0.738078633379446
0.0031097871929066656
0.056591682601796034
0.725765823705012
-0.6844997123040617
0.702500898551419
-0.4296790362601294
0.6011860152304003
0.03386375318771018
-0.3852994377527527
0.24392032664457575
0.037602131696417906
-0.024488307473669924
0.005809959486258176
0.00716577397440421
-0.3408639002930607
0.444426575346637
-0.3760905235391502
0.2709844527198223
-0.10734358712363035
0.2440153403491072
-0.30735583864662863
0.20489092635251094
0.8850363066500315
-0.1805327969517891
0.37068405735026544
-0.11424713072144344
-0.2175688176483681
0.2663882491592473
0.20660984287371909
0.18249461410005963
0.16176412161522813
-0.18828490085336314
-0.49382025417716946
0.6195065538016082
-1.3336156416330334
0.5249481923782023
0.054921003462804374
0.21801731677729141
-0.22711765709161502
0.34088077588414833
0.12183792079808886
-0.14462115937539632
0.18606006893345628
0.07762958977974899
0.698332264895676
-2.870015794365263
0.026744068638849483
0.054123338934361165
0.8184562279134496
-0.6734121709740526
0.05632693033435854
-0.05023618031277444
0.22958716837875537
-0.3138726039913817
0.9893539059672313
-1.2632010822056141
0.8820990325997289
-0.8013659822052766
0.9896071597845093
-2.5608685936053117
1.141932422177816
-0.7345668976403338
-0.25132035837577604
0.615763851418089
0.980196609981133
-1.8841032553057446
0.6883553402459316
-2.5996049171053732
0.25247917937225184
-0.1366261148235921
0.5747015406787128
-0.5545928375805648
-0.5559107525130663
0.7178794487815834
1.0528362810669727
-1.4404106482305477
-0.006790037743635624
0.04860180532042113
0.428070842497037
-0.7687730966301667
-1.2316737705186553
0.5935297647460817
-0.014050367871374814
0.0242395646106206
1.141932422177816
-0.7345668976403338
1.1594160810030145
-1.4102304193750803
0.142239327130803
-0.18021653990911696
-0.6178560414473946
0.28335140791200564
0.06388567327014694
-0.05330901294956181
-0.6553747991384493
0.43332027408376084
-0.003210298517068354
0.09181216535234288
0.6654921447060007
-1.1783236834410258
0.288708486951487
-0.6325715506886964
-0.05889880950010862
0.13650248725830627
-0.9043845053222767
0.6322492293067279
0.4628361697424598
-0.7435375594784587
0.5796840927651348
-1.316338829442847
0.45321174941342135
-0.1519436229990374
0.6676027510689226
-0.3425306184586159
0.4169942040474133
-0.5923825058747463
0.5540789129652373
-0.6333404222942058
-0.007330012060886189
0.1715582848367766
0.44587685359196083
-0.34512044063324476
0.7420824894312363
-0.4495342038652276
0.8850363066500315
-0.1805327969517891
-0.3358996902198981
0.4108570813049711
-0.05847434230369131
0.1113657167752462
0.655583296174003
-1.5790766104607936
0.06137555978314169
0.04458052458347728
0.3012504849270199
-0.2493446793135754
-0.2720523964440038
0.2718164123882758
0.628615196563951
-0.47483233768732314
-0.6610975938755468
0.31021522978367244
0.33891196050922057
-0.4766233033292871
-0.32473980264521474
0.21958794005048587
1.1693699364934669
-0.9948114557764636
0.7610988311414829
-0.06808149439610744
0.9687556678410021
-1.0317127091433904
0.8740999960061311
-0.6666936443997634
0.9801599856665603
-1.5997179454048853
0.35245249060092254
-0.06589929552291673
0.9444575924318922
-1.2378635848293036
0.10985452684158803
-0.0830883710076149
-0.14916124402598463
0.386917983182675
0.10250715720840714
-0.09624789414483181
0.8950435796395506
-1.140956591681947
-1.4928255486602056
0.5720679484162774
-0.32950618195544573
0.27890114801440524
1.05169567289422
-2.21109800804382
1.05169567289422
-2.21109800804382
-0.003210298517068354
0.09181216535234288
0.4091736892287521
0.11210759095063505
0.7707657182932266
-0.501553512385604
0.8155386030204105
-0.756785968856645
-0.12981142943180268
0.2515384499027018
-0.5096374599517933
0.376651230778403
0.10250715720841308
-0.09624789414482593
-0.14661113045367521
0.25415683473793116
1.1693699364934669
-0.9948114557764636
0.4825798416081998
-0.4174255257710644
0.3787569918711754
-0.09929601790959175
0.27167610821229626
-0.386332770104338
0.5747519758135198
-0.30557503921756424
-0.04150474639426838
0.23666089670500567
0.3262544910538613
-0.4181159952074258
0.2983836292641815
-0.35673974068259495
0.33891196050922023
-0.47662330332928726
0.27102253581706004
-0.3782420353636351
0.35615968261039255
0.13788843939577555
1.1213685868703223
-0.6373476972914439
-0.08464454041419445
0.1578703012456486
1.1693699364934669
-0.9948114557764636
-1.0138328353093864
0.34798513562244615
0.5509905959242649
-0.6531619587016659
0.6564470486755334
-0.26946677505609906
0.048751138679228756
9.343306018707587E-4
0.6824288683801059
-2.3650732648384984
0.3513365039428127
-1.5779935691964286
0.4915654541648775
-0.32855743094187306
0.33590072726347886
-0.6706054499891061
0.16387289435279884
-0.2011699857634235
0.04649359211421844
-0.019931282804940054
-1.6573536970013993
0.512627741182063
0.1640245149415933
-0.22457077099872813
0.32796229152594747
-0.51305596112365
-0.28017578612036065
0.23050484874994187
0.18454110242237365
-0.24600143798243462
0.046323667633980325
0.08087512130653995
0.017675372013816748
0.0464666797524933
0.7793654533472315
-0.8153822042984888
1.0653344142714039
-1.51517001899593
0.20698007406942687
-0.1197381943571374
0.7629827367730444
-2.5166034461282667
0.4013342864478071
-1.3417938138837884
0.7617766271705202
-0.2676163997164447
-0.2046834856108357
0.24200425241629953
0.37755190844055664
-1.0021543349958684
0.3743719831897352
-0.4340137439651741
0.29188308787421036
-0.10115424928374739
0.8374264843739287
-2.9459075090164277
0.24107428875984738
-0.3518318919308753
0.6546382511427066
-0.9154349219962798
0.12405118991272723
0.2642215041796741
0.1340004193142888
0.10808186364714123
-0.7349504788752921
0.4726592052101263
0.04661480084213521
-0.02485180414766175
0.2983628230117525
-0.008798549751980855
0.1700478642386073
-0.21539528863387336
-0.5018049689210256
0.46495241256237585
0.5452511537503395
-0.6974174463265878
0.7496929034010511
-0.30812023369398645
1.0085681599165863
-0.8969726965234815
0.06931649526562789
0.04129782225158907
0.07932164768092975
-0.02509616192598485
1.1693699364934742
-0.9948114557764564
-0.38393358907536496
0.2850983627109209
0.42144135660671433
-0.7481368732990755
0.4977571446421485
-0.35868893405208
0.7528420042643967
-1.1782622946458083
1.047204563095472
-0.4238296486145132
0.6564470486755374
-0.2694667750560953
-0.8790092880153579
0.324105149701186
0.8850363066500314
-0.1805327969517893
0.41983621046072916
-0.16205090709383874
0.48444516043937536
-1.9527916909615222
0.16658248038875656
-0.22750327662560987
0.49879322848334573
-1.342086583077832
0.5994347443307068
-0.04179375948920161
0.00962247289006446
0.0463074196893265
-6.969736102205859E-4
0.06322662704565118
1.1213685868703214
-0.6373476972914447
0.298362823011756
-0.008798549751977358
0.6089382156651624
-0.24950607300799932
0.201430754363081
0.06766629909607902
0.04976823057640578
0.0470063725070502
-0.19197981973539407
0.2327564682438069
0.363987328790898
-1.0535921289781367
0.5078959255769103
-0.3875395810156175
0.2993520200178541
-0.38441277800049
0.48979440066842383
-0.7839228485858144
0.6476666849136955
-0.08169311368603083
0.9293513922644225
-1.2546078134585745
0.20698007406942687
-0.1197381943571374
0.39359360228549445
-0.6942285928387906
-0.4241058877791274
0.3040198860330501
-0.7510832517268071
0.4346629078276243
1.0675987531793096
-1.1424495644509949
-0.6054616295258352
0.2979432909837676
0.4272940868480044
-0.16576031151559678
-0.17955302135403262
0.18092620293115758
0.3561596826103985
0.13788843939578121
0.6555832961740024
-1.5790766104607943
0.742082489431237
-0.4495342038652268
0.4931897137007213
-0.19591253021970378
-0.7410097672992234
0.6770271020208115
0.20506029931949915
-0.20035821259735526
0.18606006893345609
0.07762958977974876
0.7105692043609301
-0.5165495867853289
-0.21122407292133047
0.26365186442399735
0.9831936161201333
-0.7027897975617783
0.6611303535096146
-0.6300900853922216
0.5593462871669188
-0.5045301641745807
0.20660984287371637
0.18249461410005674
0.003911089855312633
0.04826774152748442
0.9319805647973466
-0.8490586196683056
0.3682083275241978
0.0340712934083367
0.8789260962240282
-2.2120508219892505
-0.3062672461871518
0.22544659839620973
0.7158053373077827
-1.6697796415752562
0.7422447709314055
-2.1429670890900754
0.6741847575499562
-0.6877077255854214
0.713415271159499
-0.03370010132378698
0.5929542792294475
0.03821079939361738
0.8981030638627256
-3.0578377976352598
0.31664844521167607
-0.6782114347660663
0.8850363066500314
-0.1805327969517893
-1.0843087504928162
0.6369287272771026
0.1943695862192918
0.010643988588130426
1.1471584007453133
-0.7657085632437108
-0.12399948413610401
0.11609878676573182
-0.40257693568370995
0.24560134109167664
0.18606006893345636
0.07762958977974899
0.5166784810016288
0.0752636864728018
0.49148081944003597
-0.6061521115051327
0.5555178398140297
-0.909312534861836
0.22514782603303685
0.026182951367450524
-0.2542739303290834
0.470615758431006
0.4393705590548833
-0.40036632947440753
-0.08552232623258527
0.10663988989594897
-0.06359159408288684
0.0822484927467328
0.9315920639459337
-2.219873034749782
-0.44677706184249133
0.2916833963755576
0.2867135529744023
-0.2842691618317732
0.7687128143849724
-0.3465575005232604
0.4186099507558314
-0.8214488142652523
0.6584212630729721
-2.240538003400328
0.4604767422209135
-0.2434748386282315
1.0403906551865492
-1.659597063293646
0.21831461981033673
0.17938430525153604
0.16436139633362323
-0.1395920559964552
0.2492290653905509
-0.48020002114451166
0.5611384674574038
-0.5107672460248585
0.16102583261836495
0.1940690176846538
0.6603937319812248
2.897364875684705E-4
0.24488695405237093
-0.37036934567947966
0.531789865335629
-0.5117154928611374
0.9896071597845038
-2.560868593605317
0.9661364414085116
-0.2817542189872638
-0.16590744372806598
0.1476637819117842
-0.14661113045367516
0.25415683473793116
0.4983575601337308
0.08337602267305932
-0.02421789368823074
0.05985170348654811
0.7499432592406037
-0.5686734297159701
0.8773548474808317
-1.993935872173722
0.40206765092969476
-1.2815046051636163
0.09273007049392945
0.015953885885834795
0.6836958962309527
-0.014148427245550765
0.7315645354471911
-0.04632249570284874
0.01757460977092773
0.008294627598864679
0.46845413542153436
0.09603221237965887
0.3854667620371277
-0.5654977412532118
1.1693699364934684
-0.9948114557764618
0.5517575536067387
-0.20262787067839105
0.74484933458635
-1.5258988934247601
0.7882650449127061
-3.67850144035127
0.6407238478616399
-1.071956580838064
0.7635645474158559
-0.1871149837056263
0.2867135529744023
-0.2842691618317732
0.06364391043437512
0.1149583485807113
0.7315645354471911
-0.04632249570284874
0.6732775781503135
-0.1869365562155345
0.6466122896199267
0.008487200845045617
0.8850363066500314
-0.1805327969517893
0.48014764853788494
-0.2940577625307681
0.2652779404441481
-0.2303482724776298
0.958584432313264
-1.243248466806548
-0.17955302135403262
0.1809262029311578
0.8622062505599857
-1.7301359964138516
-0.4101071764878625
0.28791231217167534
0.4854464774686027
0.08892700284766719
0.18119375298513607
-0.08189493839933015
-1.1543688808259167
0.5819133490220033
0.023807602394585348
0.04775425600686911
0.23854195493699604
-0.35900855762743933
0.49835968703805966
-0.07101773899839214
0.3561596826103985
0.13788843939578121
0.2867135529744023
-0.2842691618317732
0.7315645354471911
-0.04632249570284874
1.0295585221055452
-2.338595674490321
0.18153027332450966
0.013388576951089526
1.1693699364934684
-0.9948114557764618
0.8155386030204107
-0.7567859688566448
0.03310048194578624
0.2816982362078884
-1.6254020155318762
0.5938442046076491
-0.5441434835141763
0.44065604868140107
0.8155386030204107
-0.7567859688566448
0.5738066266875874
-1.6935499313908513
0.3561596826103985
0.13788843939578121
0.38605669877882565
-0.5481260146049467
0.8773548474808317
-1.993935872173722
1.1693699364934684
-0.9948114557764618
0.05264666905817439
-0.02079827093368314
0.12193740383141738
-0.03777400785486862
2.2079058823354534
2.2079058823354476
2.207905882335451
2.2079058823354534
2.2079058823354534
2.207905882335451
2.207905882335451
2.207905882335458
2.207905882335451
2.207905882335458
2.2079058823354534
2.2079058823354534
2.2079058823354534
2.207905882335451
2.2079058823354614
2.2079058823354534
2.2079058823354503
2.2079058823354534
2.207905882335458
2.2079058823354534
2.2079058823354534
2.207905882335451
2.2079058823354534
2.207905882335458
2.2079058823354534
2.2079058823354476
2.2079058823354534
2.207905882335451
