GIS
1
0.0
35
Recipient
Money
Place
Plaintiff
Position
Entity
Person
Victim
Time-Within
Agent
Giver
Attacker
Target
Buyer
Artifact
Destination
Vehicle
Instrument
Beneficiary
Time-Ending
Seller
Origin
Time-Holds
Org
Time-At-End
Time-At-Beginning
Time-Before
Time-Starting
Time-After
Defendant
Adjudicator
Sentence
Crime
Prosecutor
Price
1078
8 0
3 0 1
1 0 1 2 3 4 5 6 7 8 9 10 11 12 13 14 15 16 17 18 19 20 21 22 23 24 25 26 27 28 29 30 31 32 33
2 0 1 2 3 4 5 6 7 8 9 10 11 12 13 14 15 16 17 18 19 20 21 22 23 24 25 26 27 28 29 30 31 32 33 34
1 0 1 2 3 4 5 6 7 8 9 10 11 12 13 14 15 16 17 18 19 20 21 22 23 24 25 26 27 29 30 31 32 33 34
2 0 1 2 3 4 5 6 7 8 9 10 11 12 13 14 15 16 17 18 19 20 21 22 23 24 26 27 28 29 30 31 32 33 34
1 0 1 2 3 4 5 6 7 8 9 10 11 12 13 14 15 16 17 18 19 20 21 22 23 25 26 27 28 29 30 31 32 33 34
1 0 1 2 3 4 5 6 7 8 9 10 11 12 13 14 15 16 17 18 19 20 21 22 23 26 28 29 30 31 32 33 34
1 0 1 2 3 4 5 6 7 8 9 10 11 12 13 14 15 16 17 18 19 21 22 23 29 30 31 32 33
1 0 1 2 3 4 5 6 7 8 9 10 11 12 13 14 15 16 17 18 20 21 22 23 24 25 26 27 29 30 31 32 33
1 0 1 2 3 4 5 6 7 8 9 10 11 12 13 14 15 16 17 20 21 22 23 29 30 31 32 33
1 0 1 2 3 4 5 6 7 8 9 10 11 12 14 17 20 23 29 30 31 32 33
1 0 1 2 3 4 5 6 7 8 9 11 12 13 14 15 16 17 18 19 20 22 23 24 25 27 29 30 32
1 0 1 2 3 4 5 6 7 9 10 11 12 13 14 15 16 17 18 21 22 23 27 29 31
1 0 1 2 3 5 6 7 8 9 10 11 12 13 14 15 16 17 18 20 21 22 23 24 27 29 30 32 33 34
1 0 1 2 3 5 6 7 8 9 10 11 12 13 14 15 16 17 20 21 22 23 24 27 29 30 32 33
1 0 1 2 3 5 6 7 8 9 10 11 12 13 14 15 16 17 20 21 26 27 29 30 31 33
1 0 1 2 4 5 6 7 8 9 10 11 12 13 14 15 16 17 18 19 20 21 22 23 25 27 29 30 31 32 34
1 0 1 2 4 5 6 7 8 10 11 12 14 15 16 17 18 19 21 22 23 24 25 26 27 28 29 30 32
1 0 1 2 4 5 7 8 9 10 11 12 14 29 32
1 0 1 2 5 6 7 8 9 10 11 12 13 14 15 17 21 22 28 29 30 31 32
1 0 1 2 5 6 7 8 9 11 12 13 14 17 23 29
1 0 1 2 5 6 7 9 11 12 13 14 16 17 21 23 29 30 32
1 0 1 2 5 6 14 18 21 23 29 34
1 0 1 2 5 7 8 10 13 14 18 22 28 30
1 0 1 2 6 7 8 9 10 13 14 15 16 19 21 23 29 30 31 32
1 0 1 2 8 10
1 0 1 2 8 10 13 14 18 19 20 22 25 26 27 28 34
1 0 1 2 8 10 13 14 18 20 25 34
1 0 1 2 8 10 14 18 19 22
1 0 1 2 8 11 12 14 15 19 21 23
1 0 1 2 10 13 14 18
1 0 1 2 10 13 14 18 20
1 0 1 2 10 13 14 20
1 0 1 2 10 29 31
1 0 1 4 5 6 7 8 10 13 14 18 20 29 30 31
1 0 1 5
1 0 1 5 6
1 0 1 5 8 9 10 14 15 16 21 25 28
1 0 1 6 8 10
1 0 1 7 9
1 0 1 8
1 0 1 8 10
1 0 1 8 10 13 14 18 20 26 34
1 0 1 8 10 18
1 0 1 8 10 18 27
1 0 1 8 11 12
1 0 1 8 13 14 18 20
1 0 1 8 18 26
1 0 1 10
1 0 1 10 13 14 18
1 0 1 10 13 20 26
1 0 1 10 14
1 0 1 10 14 20
1 0 1 10 18
1 0 1 10 22
1 0 1 13
1 0 1 13 14
1 0 1 18 34
1 0 1 29
1 0 2
1 0 2 3 4 5 6 7 8 9 10 11 12 13 14 15 16 17 18 19 20 21 22 23 24 25 26 27 28 29 30 31 32 33
1 0 2 3 4 5 6 7 8 9 10 11 12 13 14 15 16 17 18 20 22 23 26 27 29 30 32 33
1 0 2 3 4 5 6 7 8 9 10 11 12 13 14 15 16 17 18 20 23 29 30 33
1 0 2 3 4 5 6 7 8 9 10 11 12 13 14 16 17 18 21 23 29 32
1 0 2 3 4 5 6 7 8 10 11 13 14 17 23 29
1 0 2 3 4 5 6 8 9 11 12 13 14 15 16 17 19 21 23 29 30 32
1 0 2 3 5 6 7 8 9 10 11 12 13 14 16 17 18 20 23 29 30 32 33 34
1 0 2 3 5 6 7 9 10 11 12 13 14 15 16 20 23 29 30 33
1 0 2 3 5 6 7 9 10 11 12 14 21 29
1 0 2 3 5 7 8 9 10 11 12 13 14 17 21 27 32
1 0 2 3 5 7 11 12 14 15 16 17 18 20 21 23 29 30
1 0 2 3 5 9 10 11 13 15 18 20 21 29 30 33
1 0 2 3 5 9 10 11 23 33
1 0 2 3 9 11 13 15 21 30
1 0 2 4 5 6 7 8 9 10 11 12 13 14 15 16 17 20 21 23 26
1 0 2 4 5 6 7 8 9 10 11 12 14 15 17 18 22 24 27 28 29 30 32 34
1 0 2 4 5 6 7 8 9 10 11 15 17 21 22 29
1 0 2 4 5 6 7 8 10 11 12 14 15 17 20 21 27 30 32
1 0 2 4 5 6 7 9 11 12 13 14 15 16 18 19 21 23 26 29 30 31 32 33
1 0 2 4 5 6 8 9 10 11 12 13 14 15 17 21 29 30 31 32
1 0 2 4 5 6 8 9 14 15 21 23 27
1 0 2 4 5 6 8 12 13 15 16 17 18 21 30 31
1 0 2 4 5 7 8 9 10 11 13 15 17 18 21 22 24 25 28 31 32 33
1 0 2 5 6
1 0 2 5 6 7 8 9 10 11 12 13 14 16 17 21 22 23 28 30 34
1 0 2 5 6 7 8 9 12 14 15 17 22 24 25 26 28
1 0 2 5 6 7 8 11 12 14 15 16 19 21 22 23 26 27 28 29 30 32
1 0 2 5 6 7 12 13 15 21 30 31 32
1 0 2 5 6 9 10 11 12 14 23 30 33
1 0 2 5 6 9 12 14 23
1 0 2 5 6 14 15 29 30 32 34
1 0 2 5 8 12 14 17 29 32
1 0 2 5 9 11 13
1 0 2 5 9 11 15 20
1 0 2 5 9 15 18 21
1 0 2 5 9 30
1 0 2 5 10 15
1 0 2 6 7 9 11 14
1 0 2 6 10 14 15 22 29
1 0 2 8 10 13 14 18 20
1 0 2 8 14
1 0 2 10 13 22 34
2 0 2 10 18
1 0 2 10 20
1 0 2 11 13 20
1 0 2 12 14 15 21
1 0 2 12 15
1 0 2 13 18
1 0 3 4 5 6 7 8 9 11 12 14 16 17 22 23 28 29 31
1 0 3 4 5 6 7 8 10 11 13 14 23
1 0 3 5 6 7 9 10 11 12 13 14 16 17 20 29 30
1 0 3 5 6 7 9 10 11 12 13 14 18 20 23 29 30 33
1 0 3 5 6 7 9 10 11 12 13 14 18 23 29 30
1 0 3 5 6 7 9 10 11 12 14 18 23 29
1 0 3 5 6 7 9 11 12 14 23 29
1 0 3 5 6 7 11 14 20
1 0 3 5 9 10 11 12 13 14 18 20 23 29 30 33
1 0 3 5 9 12
1 0 3 5 9 14
1 0 3 5 11 12 18 29
1 0 3 6 9 10 11 20
1 0 3 29
1 0 4 6 7 12 14
1 0 5
1 0 5 6 7 9 10 11 12 13
1 0 5 6 7 9 10 11 12 14 29
1 0 5 6 7 9 10 11 13 14 15 16 17 20 26 30 31
1 0 5 6 7 9 11 12 14 17
1 0 5 6 7 9 11 12 14 18 21 29
1 0 5 6 7 9 11 12 14 29
1 0 5 6 7 9 12 29
1 0 5 6 7 11 12
1 0 5 6 7 11 12 13 14 17 18 23 29 30
1 0 5 6 7 12 14 29
1 0 5 6 9 15 23 29
1 0 5 6 9 29
1 0 5 7 9 13 14
1 0 5 7 10 11 18
1 0 5 7 14
1 0 5 9
1 0 5 10 12 23 29
1 0 5 11
1 0 5 11 20
1 0 5 13 14 20 23 29
1 0 5 30 33
2 0 6
1 0 6 7
1 0 6 7 8 9 11 12 14 21 29 32
1 0 6 7 11 12 14 20 29
1 0 6 10 14 18
1 0 7
1 0 7 12
1 0 8 10
1 0 8 10 13 14 18 20
1 0 8 10 14 18 34
1 0 9 10 14 15 16 21
1 0 9 14
6 0 10
1 0 10 11 13 17
2 0 10 13
1 0 10 13 14 18
1 0 10 13 14 18 20 34
1 0 10 13 14 20
1 0 10 13 14 20 26
2 0 10 13 18 20
1 0 10 13 20
5 0 10 18
1 0 10 22
1 0 11
1 0 11 14
1 0 12 15 21
2 0 13
1 0 13 14
2 0 13 18
1 0 14 18
1 0 14 34
3 0 18
1 0 23
4 1
1 1 2 3 5 6 7 8 10 12 14 15 17 21 22 23 29 31 32
1 1 2 3 5 6 7 10 12 14 17 21 22 23 31 32
1 1 2 3 5 6 8 9 15 19 21 22 24 25 26 27 28 29 30 31 32 33
1 1 2 3 5 6 8 9 29 30 31 32 33
1 1 2 3 5 6 9 22 29 31
1 1 2 3 5 6 9 29 30 31 32 33
1 1 2 3 6 8 9 29 30 31 32 33
1 1 2 3 6 8 29 31 32
1 1 2 4
1 1 2 4 5 8 9 11 15 17 20 21 22 30 31 32 34
1 1 2 5 6 7 8 9 10 11 14 15 16 17 20 22 23 32
1 1 2 5 6 8 10 18 28 32
1 1 2 5 7 8 14 15 20 21 22 29 32
1 1 2 5 8 14 15 16 19 27
1 1 2 5 8 30 32
1 1 2 6 8 22 25 27 29 30 31 32
2 1 2 8
1 1 2 8 14 15 16 19 26 27 32
1 1 2 18
1 1 2 30 31 32
1 1 3 5 7 9 10 11 14 17 26 30 31
1 1 4 6 8
1 1 5
1 1 5 6 7 8 11 12 14 17 23
1 1 5 9 12
1 1 5 10
1 1 5 14
1 1 6 7 10 11 12 13 15 17 22 23 26 30
1 1 6 8
1 1 7 9 23 34
1 1 7 31 32
1 1 8 14
1 1 8 14 15 23 29 31
1 1 8 20 34
1 1 8 22
1 1 8 22 26 27 31
1 1 9 14 23
2 1 10 14
1 1 10 14 20
1 1 11 15 31
3 1 14
1 1 14 20 22
1 1 15 31
1 1 34
64 2
1 2 3 5 6 7 8 9 10 11 12 14 15 16 17 19 23 27 28 29 30 31 32
1 2 3 5 6 7 8 9 11 12 14 20 23 26 28 29 30
1 2 3 5 6 7 9 11 12 14 20 29
1 2 3 5 6 7 9 11 14 23
1 2 3 5 6 8 9 22 27 29 30 32 33
1 2 3 5 6 8 11 12 14 16 17 31
1 2 3 5 6 9 29 30 33
1 2 3 5 7 9 11 12 14 29 32
1 2 3 5 11 12 15 29
1 2 3 6 7 14 15 22 26 29 30
1 2 3 6 8 9 22 29 30 31 32 33
1 2 3 6 11 14
1 2 3 6 31 32
1 2 3 8 11 29
1 2 3 8 22 30 32
1 2 3 8 29 30 31 32 33
1 2 3 8 30
1 2 3 9 29 30 33
1 2 3 29 30 32
4 2 4 5
3 2 4 5 6
1 2 4 5 6 7 8 9 10 11 12 13 14 15 16 17 18 20 21 30 32
1 2 4 5 6 7 8 9 11 12 13 14 17 20 22 23 24 29 30 32 33
1 2 4 5 6 7 9 10 11 13 14 15 16 17 18 20 23 30
1 2 4 5 6 7 11 14 32
5 2 4 5 6 8
2 2 4 5 6 8 9
1 2 4 5 6 8 9 11 12 14 15 17
1 2 4 5 6 8 9 19 22 24 25 26 27 28
1 2 4 5 6 8 11 12 17 27
1 2 4 5 6 8 13 14 20 34
1 2 4 5 6 8 22
1 2 4 5 6 8 24 26
1 2 4 5 6 8 25
1 2 4 5 6 8 25 27
3 2 4 5 6 8 27
1 2 4 5 6 8 27 28
1 2 4 5 6 8 28
1 2 4 5 6 9
1 2 4 5 6 9 14 15 23 32
1 2 4 5 6 10 11 17 20 21 30
1 2 4 5 6 22 27
1 2 4 5 6 27
1 2 4 5 8 10 12 14 17 29
1 2 4 5 8 12 15
2 2 4 6
1 2 4 6 7 8
1 2 4 6 7 8 9 14 16 21
1 2 4 7 8 9 11 12
1 2 4 8
14 2 5
4 2 5 6
1 2 5 6 7 8 9 10 11 14 21 23 29 30
1 2 5 6 7 8 9 11 12 14 16 27 29
1 2 5 6 7 8 9 11 14 15 16 17 21 22 23 24
1 2 5 6 7 8 10 12 14 22 23 25 27 28
1 2 5 6 7 8 12 15 16 19 20 21 22 27 29 30 34
1 2 5 6 7 9 10 11 12 13 14 16 17 20 21 23 29 30
1 2 5 6 7 9 11 14 16 17 21 29 33
1 2 5 6 7 11 12 13 14 29
1 2 5 6 7 11 12 14 17 23 29 30 32
2 2 5 6 8
1 2 5 6 8 9 10
1 2 5 6 8 9 11
1 2 5 6 8 9 14 15 16 21 22 24 29
1 2 5 6 8 9 14 15 16 21 27 28
1 2 5 6 8 9 14 15 21 28
1 2 5 6 8 14 15 22 29 30 32 34
1 2 5 6 8 30
1 2 5 6 8 32
1 2 5 6 9 11
1 2 5 6 9 11 12 14 17
1 2 5 6 10 30
1 2 5 6 11 12
1 2 5 6 11 12 14 15 17
1 2 5 6 11 12 14 17 23 30 32
1 2 5 6 11 14 17 23 30
1 2 5 6 12 17
1 2 5 7 8 9 11 12 14 16 18 19 22 29 30 32
1 2 5 7 8 9 11 12 17 19 22 24 25 26 27 28
1 2 5 7 8 11 12 17 19 22 26 27
1 2 5 7 9 12 14 17
1 2 5 7 15
14 2 5 8
1 2 5 8 9 11 12 17 22 26 27
1 2 5 8 10 11 13 14 15 17 23 27 29 30 32 33
1 2 5 8 10 11 17 20 21 27
1 2 5 8 11 12 17
2 2 5 8 11 12 17 22
1 2 5 8 11 12 17 22 26
1 2 5 8 11 12 17 22 26 28
2 2 5 8 11 17 22
1 2 5 8 11 25
1 2 5 8 12 15
1 2 5 8 12 17 25
2 2 5 8 14 15
1 2 5 8 14 15 26
1 2 5 8 19
2 2 5 8 19 22
1 2 5 8 19 22 25 26 27 28
1 2 5 8 19 22 27
6 2 5 8 22
1 2 5 8 22 28
1 2 5 8 25
1 2 5 8 25 27 28
1 2 5 8 26 27
2 2 5 8 27
1 2 5 8 27 28
1 2 5 9 10 11 15 21
1 2 5 9 11 14 18 32
1 2 5 9 11 15
1 2 5 9 11 15 20 21
1 2 5 9 14
1 2 5 9 15
1 2 5 9 19
1 2 5 9 22 29 30 32 33
1 2 5 10 15
2 2 5 11
2 2 5 11 12 17
1 2 5 11 12 17 27
1 2 5 11 12 17 28
1 2 5 11 13
1 2 5 11 13 15 21
1 2 5 11 15 18 21 29
1 2 5 11 21
1 2 5 12 15
1 2 5 12 15 21
1 2 5 12 15 27
2 2 5 12 17 22
1 2 5 13 15
1 2 5 14 15 17 19
3 2 5 15
5 2 5 15 21
1 2 5 21
1 2 5 22
2 2 5 27
1 2 5 30 32
2 2 6
2 2 6 7
1 2 6 7 8 9 11 12 17 25 26 27
1 2 6 7 8 9 11 14 15 22 24 29 32
5 2 6 7 8 9 17
1 2 6 7 8 9 17 19 22 25 26 27 28
1 2 6 7 8 9 17 22
1 2 6 7 8 9 17 28 29 31
1 2 6 7 8 9 19 27
1 2 6 7 8 25
1 2 6 7 8 25 32
1 2 6 7 9
1 2 6 7 9 10 14
4 2 6 7 9 17
1 2 6 7 14 16 28
1 2 6 7 17 27
1 2 6 7 19
5 2 6 8
1 2 6 8 9 13 14 18 20 26
1 2 6 8 9 19 32
1 2 6 8 9 32
1 2 6 8 11 12
1 2 6 8 11 13 14 20
1 2 6 8 11 21
1 2 6 8 19 23
1 2 6 8 19 26
1 2 6 8 22
1 2 6 8 26
1 2 6 8 26 29 30 31 32 33
1 2 6 8 27 29 30 31 32
1 2 6 8 32
1 2 6 9 15 21 29 30 31 32 33
1 2 6 10 11 14 29
1 2 6 14
2 2 6 14 15
1 2 6 14 15 31 32
1 2 6 14 17
1 2 6 22 29 31 32
1 2 7
5 2 7 8
4 2 7 8 9
1 2 7 8 9 11 12
1 2 7 8 9 11 12 17 23
1 2 7 8 9 11 12 17 27
1 2 7 8 9 11 12 22
1 2 7 8 9 11 27
1 2 7 8 9 12 17
1 2 7 8 9 14 15 16 19 21 22 24 25 26 27 28
5 2 7 8 9 17
1 2 7 8 9 17 22 26
1 2 7 8 9 17 28
1 2 7 8 11 12
1 2 7 8 11 12 17
1 2 7 8 11 12 17 19 25
1 2 7 8 11 17
1 2 7 8 12
1 2 7 8 12 16
1 2 7 8 17 25
2 2 7 9
1 2 7 9 11
2 2 7 9 11 12
1 2 7 9 14 15 23
1 2 7 9 17
1 2 7 11 12
1 2 7 14 15
1 2 7 15
1 2 7 15 21
1 2 7 17
17 2 8
1 2 8 9 10 16 21 24 26 32
1 2 8 9 11
1 2 8 9 11 12 14 15 17 19 21 23 27 28
1 2 8 9 11 12 14 17 21
1 2 8 9 11 12 17
1 2 8 9 11 12 17 23
1 2 8 9 13 14 21
1 2 8 9 19 23 25 26 27 28
1 2 8 9 23
1 2 8 9 23 26
1 2 8 9 29
1 2 8 10 27
1 2 8 11
10 2 8 11 12
7 2 8 11 12 17
1 2 8 11 12 17 19 27
1 2 8 11 12 17 19 29 30 32 33
4 2 8 11 12 17 22
1 2 8 11 12 17 22 26
1 2 8 11 12 17 22 27
2 2 8 11 12 17 26
2 2 8 11 12 17 27
2 2 8 11 12 22
1 2 8 11 12 26 27
2 2 8 11 12 27
3 2 8 11 17
1 2 8 11 17 22
1 2 8 11 19
1 2 8 11 22
1 2 8 11 22 24
5 2 8 12
1 2 8 12 15 16 19 32
1 2 8 12 15 23 32
1 2 8 12 17
1 2 8 12 22 27
1 2 8 13 14 15
1 2 8 13 14 18 20 34
1 2 8 13 14 20 34
1 2 8 14
1 2 8 14 15 21
1 2 8 14 15 29 32
1 2 8 15 19 27 29 30 32
1 2 8 15 26
1 2 8 16 22
2 2 8 19 27
1 2 8 20 34
4 2 8 22
1 2 8 22 27 29 30 32 33
2 2 8 23
1 2 8 23 25
1 2 8 26 27
1 2 8 27
1 2 8 27 29 30 32 33
1 2 8 29 30 31 32
2 2 8 29 30 32
1 2 8 29 30 32 33
1 2 8 32
1 2 9 10
1 2 9 11
1 2 9 11 12 14 15 21 24
1 2 9 11 15 20
1 2 9 11 17
1 2 9 11 21
1 2 9 13
1 2 9 15
2 2 9 17
3 2 9 23
1 2 9 30
1 2 10 13 18 20
1 2 10 27
20 2 11
12 2 11 12
1 2 11 12 14 15 17 22
2 2 11 12 15 29
14 2 11 12 17
1 2 11 12 17 25
1 2 11 12 19
1 2 11 12 22
1 2 11 12 26
1 2 11 12 27
1 2 11 12 28
1 2 11 13
1 2 11 14 21
2 2 11 15 21
1 2 11 15 21 33
1 2 11 19 22
1 2 11 22
1 2 11 22 27
1 2 11 28 29 30
19 2 12
2 2 12 14 15 21
1 2 12 14 17
5 2 12 15
6 2 12 15 21
4 2 12 17
1 2 12 21 23
1 2 12 22
1 2 12 22 27 28
1 2 12 27
1 2 13 14
2 2 14
2 2 14 15
1 2 14 15 21
1 2 14 15 23
1 2 14 16 17
1 2 14 20 21 24
27 2 15
1 2 15 19 21
17 2 15 21
1 2 15 30 31 32
1 2 17 27
9 2 21
1 2 21 29 30
1 2 22 27
1 2 22 29 32
2 2 23
2 2 24 29 30
1 2 29 30 32
1 2 29 30 32 33
1 2 29 31 32
1 2 29 32 33
6 2 30
1 2 30 31
3 2 32
2 3
1 3 5
1 3 5 6 7 9 10 11 14 29
1 3 5 6 7 9 11 12 13 14 29
1 3 5 6 7 9 11 12 14 29
1 3 5 6 8 9 14
1 3 5 6 9 10 11 13 14 17 20 21 27 30 31 33
1 3 5 6 9 10 12 14 29
1 3 5 6 9 11 14 16 17 29 30
1 3 5 6 11 13 14 20
1 3 5 6 14 29
1 3 5 6 29
1 3 5 6 29 30
1 3 5 7 9 11 20 23
1 3 5 9 30
1 3 5 23
2 3 5 29
1 3 6 7 9 11 12 14 29
1 3 6 7 11 12 14 17 22
1 3 6 7 14 29
1 3 6 8
1 3 6 8 29
1 3 6 9 29 30 32 33
1 3 6 9 29 30 33
3 3 6 29
1 3 6 29 30
1 3 6 29 31
1 3 6 29 32
1 3 7 11 12
1 3 8 22 29 30 32
2 3 8 29
1 3 8 29 32
1 3 9
1 3 9 10 14
1 3 9 29 30
1 3 9 29 30 31 33
1 3 9 30 31 33
1 3 12 14 15
1 3 13
1 3 14 23 29
2 3 17
1 3 17 29
5 3 29
1 3 29 30
1 3 29 32
1 3 30 31
1 3 33
8 4
5 4 5
13 4 5 6
1 4 5 6 7
1 4 5 6 7 11 14
1 4 5 6 7 12
1 4 5 6 8
1 4 5 6 8 9 14 15 21 26
1 4 5 6 8 9 14 21 23
1 4 5 6 8 28
1 4 5 6 17 32
1 4 5 6 23 28
1 4 5 6 27
2 4 5 6 28
1 4 5 7 9 12 15 23
1 4 5 12
8 4 6
1 4 6 7 8 24
1 4 6 7 12
1 4 6 8
1 4 6 8 23
2 4 6 9
1 4 6 12
1 4 6 14
1 4 6 14 29
1 4 6 15
1 4 6 29
1 4 6 33
1 4 7
1 4 12 14 22
1 4 13
1 4 17
1 4 29 31
81 5
10 5 6
1 5 6 7 8 9 10 11 14 22 23 29 30
1 5 6 7 8 9 11 12 14 17 21 29
1 5 6 7 8 9 11 12 14 29 30
1 5 6 7 8 22 29
2 5 6 7 9
1 5 6 7 9 10 11 12 13 14 17 20 23 29 30 32
1 5 6 7 9 10 11 12 13 14 29
1 5 6 7 9 11 12
1 5 6 7 9 11 12 14
1 5 6 7 9 29 30
1 5 6 7 10 11 12 14
1 5 6 7 10 12 14
1 5 6 7 12
2 5 6 7 12 14
1 5 6 7 12 14 18
2 5 6 7 14
1 5 6 7 14 29
1 5 6 7 16
1 5 6 8 9 23
1 5 6 8 10 33
1 5 6 8 11 13
2 5 6 8 14 15
1 5 6 8 14 15 16 21 24 26 27 28
1 5 6 8 14 15 21
1 5 6 8 14 15 21 29
1 5 6 8 26 27 29 30 32
3 5 6 9
1 5 6 9 10 11 12 14 20 29
1 5 6 9 10 11 14 29
2 5 6 9 11 14
1 5 6 9 11 14 17 26
1 5 6 9 12
1 5 6 9 14 20 30
1 5 6 9 14 29
1 5 6 9 26
1 5 6 9 29 30
1 5 6 10 11 12 14
1 5 6 11 12 14
1 5 6 11 13
1 5 6 11 14
1 5 6 11 14 17 20
2 5 6 12 14
1 5 6 12 28
1 5 6 12 29
1 5 6 12 32
1 5 6 14
1 5 6 14 15 19 22
1 5 6 14 15 23
1 5 6 14 21
2 5 6 14 29
1 5 6 22 27
3 5 6 29
1 5 6 30
1 5 7
1 5 7 8 11 12 17
1 5 7 8 14 15 21
1 5 7 8 15 21
1 5 7 9
1 5 7 9 10 11 12 13 14 29 30
1 5 7 9 10 11 20 23
1 5 7 9 11
1 5 7 9 11 12 13 14 18
1 5 7 9 12 32
2 5 7 9 14 29
3 5 7 11
1 5 7 11 12 14
1 5 7 11 12 29
1 5 7 11 14
1 5 7 11 14 15 16 29
2 5 7 12
3 5 7 12 14
1 5 7 12 16 21
1 5 7 13 29
1 5 7 14
1 5 7 29
11 5 8
1 5 8 9 11 13 14
1 5 8 9 14
1 5 8 9 14 15 16 21 22 26 27
1 5 8 9 14 15 21 22
1 5 8 11 12 17
1 5 8 14 15
2 5 8 22
1 5 8 22 27
2 5 8 27
2 5 8 30
2 5 9
1 5 9 10
1 5 9 10 11 14
1 5 9 11
1 5 9 11 12 14
1 5 9 11 12 14 28
1 5 9 11 12 23
1 5 9 11 14
1 5 9 11 15 17 21 23 27
1 5 9 11 23
1 5 9 11 32
1 5 9 12
2 5 9 12 14
1 5 9 13
2 5 9 14
1 5 9 14 17 23
1 5 9 14 29
1 5 9 30
1 5 10
2 5 10 11
1 5 10 13
1 5 10 14
1 5 10 14 29
1 5 10 29
6 5 11
3 5 11 12
1 5 11 12 14
1 5 11 12 14 15 20
1 5 11 12 15
1 5 11 13 23
1 5 11 14
1 5 11 14 16
1 5 11 14 22
1 5 11 15
1 5 11 15 21
1 5 11 17
1 5 11 17 27
2 5 12
1 5 12 14 18
1 5 12 15
1 5 12 23
1 5 13 23 29
4 5 14
1 5 14 21
1 5 14 29
1 5 14 29 30
1 5 15 23
1 5 16 21
1 5 17
1 5 19
1 5 20
1 5 23
2 5 27
1 5 28
1 5 29
1 5 30
57 6
10 6 7
1 6 7 8
1 6 7 8 9 17
12 6 7 9
1 6 7 9 10 11 12 14 17 29
1 6 7 9 10 11 13 17
1 6 7 9 11 12 14 29
1 6 7 9 11 12 14 29 30
1 6 7 9 11 14
1 6 7 9 11 14 29
1 6 7 9 12
1 6 7 9 14
1 6 7 9 14 17
1 6 7 9 32
1 6 7 11 17
1 6 7 11 23
1 6 7 12
2 6 7 12 14
1 6 7 12 21 29 32
3 6 7 14
4 6 7 17
1 6 7 17 22
1 6 7 26
1 6 7 29
7 6 8
1 6 8 9
1 6 8 9 14 16 21
1 6 8 9 15 21
1 6 8 9 22 32
1 6 8 11 14 23 29
1 6 8 22 29
1 6 8 32
7 6 9
1 6 9 11
1 6 9 11 12 29
1 6 9 11 29
1 6 9 12 29
1 6 9 13 14
1 6 9 14
1 6 9 14 29
1 6 9 15 21
1 6 9 27 32
1 6 9 29
1 6 10 12 14
1 6 10 14
1 6 11
1 6 11 12
1 6 11 12 14
1 6 11 13 14
1 6 11 14
2 6 11 29
2 6 12
1 6 12 13 15 17 29 31
1 6 12 14
1 6 12 14 15 21 23
1 6 15 29 34
1 6 17
1 6 21
7 6 29
3 6 29 30
2 6 29 30 32
2 6 29 32
1 6 31 32
42 7
3 7 8
1 7 8 9
1 7 8 9 14 15 16 21 22 24 27
1 7 8 9 17 26
1 7 8 11 12
1 7 8 12
1 7 8 14 30
1 7 8 27
1 7 8 31 32
32 7 9
2 7 9 11
4 7 9 11 12
2 7 9 11 12 13 14
1 7 9 11 12 14
1 7 9 11 14
1 7 9 11 17
1 7 9 12 14
1 7 9 14
4 7 9 17
1 7 9 19 22
1 7 10 11 12 20 29
2 7 11
2 7 11 12
2 7 11 12 14
1 7 11 12 14 20
1 7 11 12 20
1 7 11 14 16 17
8 7 12
2 7 12 14
1 7 12 16
1 7 12 17
1 7 12 28
1 7 12 29
1 7 13 17 29
1 7 14
1 7 14 15 29
1 7 14 16 17 27
1 7 14 17
1 7 14 29
64 8
1 8 9 14 15
1 8 9 14 15 16
1 8 9 14 15 16 19 21 22 27
1 8 9 14 15 16 19 21 24 26
2 8 9 14 15 16 21
1 8 9 14 15 16 21 22 28
1 8 9 14 15 16 21 27
1 8 9 14 15 16 27
1 8 9 14 15 21
1 8 9 14 15 24 28
3 8 9 14 16 21
2 8 9 14 21
2 8 9 15 16
1 8 9 16 21 24
3 8 9 23
1 8 9 28
1 8 9 29 31
2 8 11
6 8 11 12
1 8 11 12 17
1 8 11 12 17 22
1 8 11 12 22
3 8 11 17
1 8 11 19
3 8 11 22
3 8 12
1 8 12 14 18 23
2 8 13 14 20 34
2 8 14
2 8 14 15
6 8 14 15 16
1 8 14 15 16 19 21 24 27
1 8 14 15 16 19 27
1 8 14 15 16 21
1 8 14 15 16 21 22
1 8 14 15 16 21 24 26
1 8 14 15 16 21 26 28
1 8 14 15 16 21 27
4 8 14 15 21
1 8 14 15 24
1 8 14 24
1 8 14 25
2 8 15
1 8 15 16
1 8 15 16 19 21
1 8 15 16 21
2 8 15 21
4 8 19
3 8 19 22
1 8 19 22 24 25 26 27 28
1 8 19 26 27
1 8 19 26 27 28
6 8 19 27
1 8 21
5 8 22
1 8 22 24
1 8 22 24 25 26 28
1 8 22 24 27 29 30 32
3 8 22 26
1 8 22 27
1 8 22 28
1 8 22 29 30 32
2 8 23
2 8 24
1 8 24 28
1 8 25
1 8 25 26
4 8 26
2 8 26 27
16 8 27
1 8 28 31
5 8 29
1 8 29 31
3 8 29 32
1 8 29 32 33
4 8 32
12 9
1 9 10 13 14
3 9 11
2 9 11 12
1 9 11 12 13 14 18
1 9 11 12 14 23
1 9 11 12 23
1 9 11 13
1 9 11 13 18
4 9 11 14
1 9 11 14 16 17 18
2 9 11 29
1 9 12 14 17 18
1 9 12 14 21
1 9 13 14 18 28
26 9 14
1 9 14 15
3 9 14 15 16
1 9 14 15 16 17 27
1 9 14 15 16 19 21
5 9 14 15 16 21
1 9 14 15 16 21 28 29 30
1 9 14 15 19 22
3 9 14 15 21
1 9 14 15 22 28
3 9 14 16
2 9 14 16 21
5 9 14 21
1 9 14 21 29 30
1 9 14 26
2 9 15
3 9 15 21
1 9 22 27 28
5 9 23
1 9 26
4 9 29
1 9 29 30
2 10
1 10 13 18 20
4 10 13 20
1 10 15
5 10 20
20 11
41 11 12
1 11 12 13 14
2 11 12 14
1 11 12 14 15 21 27
1 11 12 14 21
7 11 12 17
2 11 12 17 22
1 11 14
9 11 17
20 12
1 12 14
1 12 14 15
2 12 14 16
5 12 14 16 17
1 12 14 17
2 12 15
1 12 16
3 12 16 17
11 12 17
1 12 21 29
1 13
2 13 14
2 13 14 18
3 13 14 20
1 13 14 25
2 13 14 34
2 13 18
1 13 20
30 14
12 14 15
4 14 15 16
2 14 15 16 21
1 14 15 16 22 27
6 14 15 21
1 14 15 21 22
1 14 15 21 25
1 14 15 23 27
13 14 16
1 14 16 21
5 14 17
3 14 20
2 14 21
2 14 23
2 14 29
1 14 34
45 15
40 15 21
1 15 21 22
1 15 21 27
1 15 21 31
1 15 30
1 15 31
4 16
3 16 17
2 16 21
41 17
1 18
2 19 22
6 21
16 23
1 23 25
1 25 29 30 32
25 29
6 29 30
3 29 30 32
2 29 31
1 29 32
1 29 32 33
1 29 33
2 30
2 30 32
11 31
3 31 32
28 32
3 33
2462
arg=Member
synPathTypes=Transaction_PERSON_nn
prevTokenAndType=Transaction_paying
evTypeArg=Transfer-Money:Member
prevToken=paying
anchor=Compensation
evTypeArg=Transfer-Money:members
evTypeArg=Transfer-Money:reporter
anchor=out-raised
prevTokenAndType=Transaction_paid
prevTokenAndType=Transaction_pay
dist=5
noSynPath
dist=2
dist=3
dist=1
dist=4
dist=0
chunkPath=precede_
prevToken=and
prevToken=,
prevToken=of
synPath=nn
dist=9
synPath=dobj
dist=8
dist=7
prevToken=by
chunkPath=follow_
prevToken=in
prevToken="
dist=11
prevToken=:
prevToken=with
synPath=iobj
anchor=pay
anchor=get
anchor=contribution/n
evType=Transaction
chunkPathAndType=Transaction_follow_
prevTokenAndType=Transaction_in
prevToken=into
synPathEvType=Transaction_dobj
prevTokenAndType=Transaction_,
prevTokenAndType=Transaction_of
anchor=receive
anchor=give
prevToken=paid
prevToken=pay
anchor=send
anchor=sign
prevToken=plus
anchor=steal
anchor=gift/n
chunkPathAndType=Transaction_precede_
anchor=donation/n
anchor=loan/n
chunkPath=precede_in
anchor=acquire
anchor=skim
anchor=pay/n
prevTokenAndType=Transaction_and
prevTokenAndType=Transaction_by
prevTokenAndType=Transaction_"
synPathEvType=Transaction_nn
anchor=aid/n
anchor=fund
prevTokenAndType=Transaction_:
prevTokenAndType=Transaction_with
synPathEvType=Transaction_iobj
prevToken=given
chunkPath=precede_,_the
dist=6
prevToken=.
prevToken=that
chunkPath=precede_be
synPath=poss
dist=10
synPath=nsubj
prevToken=)
arg=people
dist=15
arg=it
menType=GPE
arg=government
arg=state
anchor=take
prevToken=for
prevToken=is
prevToken=from
prevToken=to
dist=13
anchor=be
synPath=prep_to
noChunkPath
arg=jordan
chunkPath=precede_to
synPath=advmod
prevToken=on
chunkPath=follow_to
arg=we
arg=us
synPath=prep_for
dist=20
arg=nation
arg=Washington
arg=Turkey
arg=court
arg=Russia
prevToken=how
anchor=have
anchor=provide
prevTokenAndType=Transaction_on
chunkPathAndType=Transaction_precede_to
anchor=raise
anchor=e
prevTokenAndType=Transaction_from
arg=Iran
prevToken=through
arg=center
prevTokenAndType=Transaction_to
prevToken=after
chunkPath=precede_'s
arg=they
menType=PERSON
arg=he
arg=him
arg=his
arg=i
menType=ORGANIZATION
arg=families
chunkPath=precede_expect_to
prevToken=give
prevToken=If
arg=lawyers
prevToken=among
prevToken=compensating
arg=someone
arg=who
prevToken=--
arg=one
arg=her
arg=members
arg=She
chunkPath=precede_get
arg=them
arg=wife
prevToken=?
arg=You
arg=women
arg=Arafat
prevToken=do
prevToken=tell
arg=companies
arg=groups
arg=North_Korea
arg=company
arg=SEC
arg=candidates
arg=Marinello
arg=infant
chunkPath=precede_have_be
prevToken=whether
arg=member
arg=reporter
arg=himself
anchor=compensate
prevTokenAndType=Transaction_.
prevTokenAndType=Transaction_for
anchor=ship
chunkPath=precede_be_able_to
evTypeArg=Transfer-Money:him
evTypeArg=Transfer-Money:government
synPathTypes=Transaction_PERSON_poss
evTypeArg=Transfer-Money:they
evTypeArg=Transfer-Money:someone
anchor=support/n
chunkPath=precede_that
chunkPathAndType=Transaction_precede_'s
synPathEvType=Transaction_poss
chunkPathAndType=Transaction_precede_be
synPathEvType=Transaction_nsubj
synPathTypes=Transaction_ORGANIZATION_nsubj
prevTokenAndType=Transaction_--
synPathTypes=Transaction_PERSON_nsubj
prevTokenAndType=Transaction_that
prevTokenAndType=Transaction_)
evTypeArg=Transfer-Money:member
evTypeArg=Transfer-Money:Arafat
synPathTypes=Transaction_PERSON_dobj
anchor=donate
evTypeArg=Transfer-Money:he
anchor=feathering
arg=gunmen
prevToken=sent
synPath=prep_through
synPathTypes=Transaction_ORGANIZATION_prep_to
chunkPathAndType=Transaction_follow_to
synPathTypes=Transaction_ORGANIZATION_dobj
synPathTypes=Transaction_PERSON_prep_to
synPathEvType=Transaction_prep_to
chunkPath=precede_would_be
synPathEvType=Transaction_prep_for
evTypeArg=Transfer-Money:her
prevTokenAndType=Transaction_give
synPathTypes=Transaction_PERSON_iobj
arg=organizations
chunkPathAndType=Justice_precede_in
synPathTypes=Transaction_Numeric_dobj
chunkPathAndType=Transaction_follow_:
chunkPath=follow_:
chunkPath=follow_of
synPath=prep_of
evType=Justice
prevTokenAndType=Justice_,
synPathEvType=Justice_dobj
prevTokenAndType=Justice_and
prevTokenAndType=Justice_of
chunkPathAndType=Justice_follow_of
chunkPath=follow_a
prevToken=a
synPath=amod
anchor=release
prevToken=over
synPath=prep_in
anchor=fine/n
chunkPathAndType=Justice_follow_
synPathEvType=Transaction_prep_in
chunkPathAndType=Transaction_follow_in
chunkPath=follow_in
anchor=transfer/n
prevTokenAndType=Justice_a
synPath=prep_by
chunkPath=follow_ORGANIZATION
anchor=fine
prevToken=out
synPath=appos
anchor=spend
arg=thousands
prevToken=about
prevToken=release
prevToken=(
chunkPath=follow_include
prevTokenAndType=Transaction_get
prevToken=get
prevTokenAndType=Transaction_a
chunkPath=precede_GPE
synPath=prep
prevToken=than
synPathEvType=Transaction_prep_of
chunkPathAndType=Transaction_follow_of
synPathEvType=Transaction_amod
prevToken=him
prevToken=acquiring
prevTokenAndType=Transaction_acquiring
prevTokenAndType=Transaction_out
prevTokenAndType=Transaction_over
chunkPath=follow_him
menType=Numeric
synPathTypes=Conflict_FACILITY_prep_in
arg=Florida
synPathTypes=Personnel_GPE_nn:Presidential:nn
evTypeArg=Attack:capital
synPathEvType=Conflict_prep_near
evTypeArg=Attack:Karbala
evTypeArg=Attack:iraq
evTypeArg=Attack:hills
synPathEvType=Contact_prep_at
evTypeArg=Attack:Rwanda
evTypeArg=Attack:here
evTypeArg=Elect:US
evTypeArg=Injure:Baghdad
evTypeArg=Meet:Beijing
evTypeArg=Attack:area
evTypeArg=Die:there
arg=neighborhood
evTypeArg=Attack:there
evTypeArg=Attack:Fallujah
evTypeArg=Injure:mall
chunkPath=follow_near
synPathTypes=Personnel_GPE_prep_in
synPathTypes=Conflict_LOCATION_prep_in
chunkPathAndType=Personnel_precede_otherName
arg=africa
arg=new_york
prevToken=recent
arg=Vietnam
arg=Rwanda
synPathTypes=Conflict_LOCATION_nn
synPathTypes=Life_GPE_prep_in
arg=Belgrade
synPathTypes=Contact_GPE_prep_in
evTypeArg=Attack:city
evTypeArg=Die:hospital
prevTokenAndType=Conflict_across
evTypeArg=Attack:Vietnam
synPathTypes=Contact_LOCATION_prep_in
synPath=nn:Presidential:nn
synPathTypes=Contact_FACILITY_prep_at
evTypeArg=Attack:gaza
synPathTypes=Life_FACILITY_advmod
synPath=prep_near
evTypeArg=Attack:bridge
prevTokenAndType=Life_outside
prevTokenAndType=Personnel_recent
chunkPath=precede_otherName
evTypeArg=Attack:Kut
evTypeArg=Die:Iraq
synPathTypes=Justice_GPE_prep_in
evTypeArg=Attack:Baghdad
prevTokenAndType=Conflict_around
synPathTypes=Conflict_GPE_prep_of
synPathTypes=Conflict_GPE_prep_in
evTypeArg=Die:checkpoint
evTypeArg=Attack:village
arg=gaza
synPathTypes=Life_FACILITY_prep_in
synPathTypes=Conflict_GPE_advmod
arg=Bali
chunkPathAndType=Conflict_follow_near
evTypeArg=Attack:place
synPathEvType=Personnel_nn:Presidential:nn
chunkPathAndType=Conflict_follow_for
dist=12
prevToken=said
prevToken=where
chunkPath=precede_have_to
prevTokenAndType=Justice_.
prevToken=or
prevTokenAndType=Justice_that
prevToken=including
prevToken=against
dist=16
chunkPathAndType=Justice_precede_
prevToken=day
synPathEvType=Justice_prep_of
anchor=action/n
anchor=appeal/n
synPathEvType=Justice_nn
anchor=appeal
prevTokenAndType=Justice_)
anchor=lawsuit/n
prevToken=retired
prevTokenAndType=Personnel_former
prevTokenAndType=Personnel_retired
prevToken=former
synPathEvType=Personnel_poss
prevTokenAndType=Personnel_of
prevTokenAndType=Personnel_to
prevToken=as
prevToken=the
chunkPath=precede_have
prevToken=be
anchor=step
prevTokenAndType=Personnel_.
synPathEvType=Personnel_nn
prevTokenAndType=Personnel_for
anchor=former
chunkPathAndType=Personnel_precede_
anchor=name
anchor=throw
evType=Personnel
anchor=fire
anchor=win
prevTokenAndType=Personnel_the
anchor=resign
anchor=hire
prevTokenAndType=Personnel_,
anchor=election/n
chunkPathAndType=Personnel_follow_
anchor=elect
prevTokenAndType=Personnel_in
anchor=retire
prevTokenAndType=Personnel_and
anchor=put
chunkPath=follow_from
anchor=become
prevTokenAndType=Personnel_from
prevToken=was
synPath=whadvmod
prevTokenAndType=Personnel_is
prevToken=become
anchor=lose
anchor=remove
anchor=eliminate
prevTokenAndType=Personnel_a
evTypeArg=Meet:Seoul
anchor=reunite
evTypeArg=Meet:Pyongyang
anchor=correspondence/n
chunkPathAndType=Contact_follow_from
evTypeArg=Meet:Iraq
synPathTypes=Contact_GPE_nn
prevTokenAndType=Contact_to
anchor=telephone/n
evTypeArg=Elect:government
evTypeArg=Elect:Iraq
arg=United_Nations
synPathEvType=Contact_prep_from
evTypeArg=Meet:Washington
prevTokenAndType=Personnel_:
synPathEvType=Personnel_prep_of
prevTokenAndType=Personnel_said
anchor=electoral
prevToken=but
chunkPath=precede_,
anchor=go
prevToken=since
prevToken=at
prevToken=when
prevToken=because
arg=their
synPath=prep_with
prevTokenAndType=Personnel_at
anchor=dismiss
prevToken=00
chunkPath=precede_for
anchor=come
anchor=head
anchor=drive
chunkPath=follow_for
prevToken=The
anchor=release/n
prevToken=know
prevToken=time
arg=board
anchor=overthrow
prevToken=-
chunkPath=follow_with
prevToken=says
prevToken=were
dist=14
evType=Conflict
anchor=war/n
synPath=cc:and:conj
synPath=prep_over
prevTokenAndType=Contact_meeting
anchor=rally/n
anchor=protest/n
anchor=talk
synPathEvType=Contact_nn
prevTokenAndType=Contact_call
anchor=conference/n
anchor=demonstration/n
prevToken=call
anchor=letter/n
anchor=speak
prevTokenAndType=Contact_from
anchor=demonstrate
prevToken=meeting
prevTokenAndType=Conflict_.
dist=17
synPath=prep_from
prevTokenAndType=Conflict_and
prevTokenAndType=Conflict_of
chunkPathAndType=Conflict_precede_
prevTokenAndType=Conflict_,
anchor=fight
synPathEvType=Conflict_amod
prevTokenAndType=Conflict_a
anchor=one
chunkPath=follow_at
synPathEvType=Conflict_advmod
anchor=march/n
anchor=march
anchor=visit
anchor=discussion/n
anchor=summit/n
chunkPathAndType=Contact_precede_
evType=Contact
anchor=meeting/n
chunkPath=follow_be
anchor=call
prevTokenAndType=Contact_on
prevTokenAndType=Contact_the
synPathEvType=Contact_advmod
prevTokenAndType=Contact_.
anchor=talk/n
prevTokenAndType=Contact_,
anchor=meet
prevTokenAndType=Contact_in
chunkPathAndType=Contact_follow_
synPathEvType=Personnel_prep_in
anchor=call/n
arg=U.S
prevToken=an
arg=Israel
arg=United_States
chunkPath=precede_did
prevToken=headed
prevToken=A
prevTokenAndType=Justice_the
arg=France
arg=israeli
arg=China
prevTokenAndType=Conflict_with
synPathEvType=Conflict_dobj
prevTokenAndType=Conflict_by
anchor=use
arg=Japan
arg=country
arg=Iraq
prevToken=persuade
arg=facility
arg=office
synPath=prep_at
chunkPathAndType=Conflict_follow_of
synPathEvType=Conflict_prep_of
arg=Pyongyang
anchor=reach
arg=there
arg=where
arg=Seoul
arg=Beijing
arg=here
arg=iraq
arg=city
arg=Jordan
prevToken=leave
prevTokenAndType=Contact_and
anchor=negotiation/n
synPathEvType=Contact_dobj
prevTokenAndType=Justice_from
chunkPathAndType=Personnel_follow_of
anchor=married
anchor=fall
synPathEvType=Life_poss
anchor=kill
prevToken='s
chunkPathAndType=Life_follow_
anchor=die
chunkPathAndType=Life_precede_
synPathEvType=Life_nn
prevTokenAndType=Life_.
evType=Life
prevTokenAndType=Life_,
anchor=death/n
anchor=execution/n
prevTokenAndType=Life_in
anchor=execute
chunkPathAndType=Life_precede_be
chunkPath=precede_who
prevTokenAndType=Life_when
synPathEvType=Life_amod
synPathEvType=Life_nsubj
prevTokenAndType=Life_of
prevToken=took
prevTokenAndType=Life_from
prevTokenAndType=Life_to
anchor=birth/n
anchor=wed
synPathEvType=Justice_advmod
anchor=born
anchor=divorce/n
anchor=capture
anchor=arrest
anchor=jail
anchor=shot/n
anchor=seize
dist=18
anchor=tie
prevTokenAndType=Personnel_on
anchor=marry
anchor=marriage/n
anchor=charge/n
anchor=sentence/n
anchor=arrest/n
prevTokenAndType=Justice_to
prevToken=like
prevToken=captured
anchor=report
prevToken=secure
prevToken=got
chunkPath=precede_that_be
anchor=serve
prevTokenAndType=Life_said
chunkPath=precede_,_people
prevTokenAndType=Life_at
prevTokenAndType=Life_killed
synPathEvType=Life_advmod
prevTokenAndType=Life_on
chunkPathAndType=Life_precede_,
anchor=murder/n
prevTokenAndType=Life_'s
anchor=assassination/n
anchor=blow
anchor=destroy
anchor=shoot
anchor=slaughter
anchor=killing/n
anchor=stab
evType=Movement
prevTokenAndType=Life_the
anchor=injure
anchor=wound
anchor=casualty/n
anchor=injury/n
anchor=dead
chunkPathAndType=Life_precede_to
prevToken=killed
anchor=hit
chunkPathAndType=Conflict_follow_
anchor=genocide/n
anchor=slaughter/n
prevToken=hit
anchor=suicide/n
chunkPathAndType=Life_precede_who
prevTokenAndType=Life_"
arg=Israeli
anchor=rape
anchor=gun
anchor=back
anchor=murder
anchor=torture
arg=another
arg=part
arg=Pearl
anchor=wound/n
chunkPathAndType=Business_follow_in
prevToken=died
synPathEvType=Justice_prep_in
synPathEvType=Contact_prep_in
synPathEvType=Life_prep_in
prevTokenAndType=Justice_In
synPathEvType=Contact_prep_on
synPathEvType=Life_prep_on
prevTokenAndType=Personnel_The
chunkPathAndType=Contact_follow_on
synPathEvType=Personnel_amod
synPathEvType=Business_prep_in
prevTokenAndType=Life_In
prevTokenAndType=Contact_at
prevTokenAndType=Life_died
synPath=prep_In
chunkPathAndType=Life_follow_in
chunkPath=precede_and
anchor=it
anchor=launch
anchor=drop
anchor=assault/n
anchor=open
anchor=pick
evType=Business
anchor=found
anchor=set
chunkPath=follow_in_the
prevToken=At
anchor=terrorism/n
anchor=airstrikes/n
anchor=battle
anchor=clash/n
anchor=storm
anchor=raid
anchor=attack
anchor=combat/n
anchor=front/n
anchor=wipe
anchor=assault
synPathEvType=Conflict_nn
anchor=detonate
chunkPathAndType=Conflict_precede_be
anchor=hit/n
prevTokenAndType=Conflict_from
prevTokenAndType=Conflict_or
anchor=raid/n
prevTokenAndType=Conflict_in
anchor=charge
anchor=bomb
anchor=explosion/n
anchor=fire/n
prevTokenAndType=Conflict_the
anchor=bombardment/n
anchor=fighting/n
anchor=attack/n
anchor=strike/n
anchor=strike
anchor=battle/n
anchor=bombings/n
prevTokenAndType=Conflict_for
prevTokenAndType=Conflict_on
chunkPathAndType=Conflict_precede_,
anchor=invasion/n
anchor=drop/n
anchor=terror/n
anchor=fight/n
prevTokenAndType=Conflict_is
anchor=War
anchor=uprising/n
prevTokenAndType=Conflict_'s
prevToken=attacked
prevTokenAndType=Conflict_hit
chunkPathAndType=Conflict_follow_on
synPathEvType=Conflict_prep_on
anchor=blast/n
synPath=prep_on
chunkPath=follow_on
anchor=airstrike/n
prevTokenAndType=Conflict_at
anchor=deliver
anchor=buy
anchor=sell
prevToken=home
chunkPath=follow_into
chunkPath=follow_over
prevTokenAndType=Justice_in
prevToken=within
prevToken=In
chunkPathAndType=Conflict_follow_in
synPathEvType=Conflict_prep_in
prevTokenAndType=Transaction_at
prevTokenAndType=Conflict_In
prevTokenAndType=Conflict_over
anchor=nine
eleven
anchor=trial/n
chunkPathAndType=Business_follow_
prevTokenAndType=Business_in
anchor=bankruptcy/n
chunkPathAndType=Contact_follow_in
chunkPathAndType=Personnel_follow_in
anchor=hearing/n
anchor=sentence
anchor=conviction/n
anchor=convict
anchor=indictment/n
chunkPathAndType=Justice_follow_in
anchor=this
arg=israel
anchor=invade
arg=US
chunkPath=follow_when
arg=countries
arg=Pakistan
arg=Greece
chunkPathAndType=Life_follow_when
prevTokenAndType=Life_a
anchor=create
chunkPathAndType=Business_precede_to
anchor=shape
chunkPathAndType=Justice_precede_have
chunkPathAndType=Transaction_precede_have
synPath=prep_At
synPathTypes=Conflict_GPE_prep_against
evTypeArg=Attack:nation
anchor=warfare/n
arg=america
evTypeArg=Attack:country
arg=united_states
evTypeArg=Attack:Israel
evTypeArg=Attack:Israeli
evTypeArg=Attack:Iraq
evTypeArg=Attack:Iran
arg=iran
synPathTypes=Conflict_GPE_prep_with
evTypeArg=Attack:United_States
synPathEvType=Conflict_prep_from
evTypeArg=Attack:China
synPathTypes=Conflict_GPE_nn
synPathTypes=Conflict_GPE_amod
chunkPathAndType=Conflict_follow_from
anchor=resistance/n
synPathTypes=Conflict_GPE_dobj
anchor=targeted
evTypeArg=Attack:their
anchor=conquer
evTypeArg=Attack:we
anchor=air/n
anchor=massacre/n
prevTokenAndType=Conflict_against
anchor=engage
anchor=firefight/n
synPathEvType=Conflict_prep_against
evTypeArg=Attack:people
chunkPathAndType=Conflict_follow_against
anchor=punch
chunkPath=follow_against
synPath=prep_against
anchor=violence/n
chunkPathAndType=Conflict_follow_with
chunkPathAndType=Conflict_precede_to
evTypeArg=Attack:it
prevTokenAndType=Conflict_as
synPathEvType=Conflict_prep_with
anchor=target/n
prevTokenAndType=Conflict_-
anchor=obliterate
anchor=shell
anchor=striking
anchor=explode
prevTokenAndType=Conflict_when
anchor=defeat
anchor=ambush
prevTokenAndType=Conflict_into
anchor=smash
prevTokenAndType=Conflict_to
anchor=rape/n
anchor=scald
arg=Indonesia
arg=side
arg=White_House
arg=region
arg=u.s
anchor=riot
anchor=bloodshed/n
anchor=conflict/n
prevToken=this
synPathTypes=Conflict_FACILITY_prep_on
evTypeArg=Attack:building
prevTokenAndType=Conflict_outside
prevTokenAndType=Conflict_near
evTypeArg=Attack:us
chunkPathAndType=Conflict_follow_to
arg=houses
evTypeArg=Attack:baghdad
chunkPathAndType=Conflict_follow_at
synPathTypes=Conflict_LOCATION_prep_on
arg=palace
evTypeArg=Attack:buildings
synPathTypes=Conflict_FACILITY_dobj
evTypeArg=Attack:outskirts
arg=cafe
synPathTypes=Conflict_FACILITY_prep_at
prevTokenAndType=Conflict_down
evTypeArg=Attack:hotel
anchor=shooting/n
menType=FACILITY
arg=hotel
prevToken=use
prevToken=towards
arg=checkpoint
arg=buildings
arg=store
prevToken=outside
arg=building
menType=LOCATION
prevToken=near
arg=baghdad
arg=home
arg=outskirts
prevTokenAndType=Conflict_use
anchor=threat/n
prevTokenAndType=Conflict_was
synPathEvType=Conflict_prep_to
prevToken=down
anchor=clash
prevTokenAndType=Conflict_since
synPathEvType=Conflict_prep_at
anchor=secure
prevToken=seized
prevTokenAndType=Transaction_captured
arg=bridge
arg=prison
arg=airport
synPath=prep_into
prevToken=take
anchor=abandon
prevToken=along
arg=Basra
arg=washington
arg=Mosul
arg=room
arg=village
arg=port
arg=Najaf
arg=Singapore
arg=heart
arg=saudi_arabia
prevToken=enter
prevToken=inside
arg=areas
prevToken=entering
arg=compound
arg=mars
arg=Saint_Petersburg
arg=camp
arg=mall
arg=florida
arg=place
arg=territory
arg=Middle_East
arg=Paris
prevToken=across
arg=Umm_Qasr
prevTokenAndType=Movement_into
arg=france
arg=desert
chunkPathAndType=Movement_follow_into
arg=area
arg=Baghdad
prevToken=around
arg=border
arg=china
arg=town
arg=New_York
arg=capital
arg=FL
evTypeArg=Transport:Iraq
arg=Karbala
arg=London
arg=Kuwait
arg=hospital
chunkPathAndType=Justice_follow_to
anchor=pound
arg=Fallujah
arg=Kut
arg=hills
arg=Northern_Ireland
arg=Ohio
arg=Jerusalem
arg=West_Bank
arg=Malaysia
arg=Gaza
prevTokenAndType=Justice_at
anchor=intifada/n
prevTokenAndType=Justice_'s
prevToken=create
prevTokenAndType=Business_create
anchor=case/n
anchor=pardon
anchor=guilty
anchor=try
anchor=face
anchor=accuse
evTypeArg=Convict:court
evTypeArg=Charge-Indict:court
evTypeArg=Sentence:court
prevTokenAndType=Justice_The
evTypeArg=Trial-Hearing:court
evTypeArg=Appeal:court
synPathEvType=Justice_prep_to
prevToken=year
prevTokenAndType=Justice_an
prevTokenAndType=Justice_year
evTypeArg=Appeal:his
evTypeArg=Appeal:Anwar
arg=shareholders
arg=He
arg=she
arg=person
prevToken=so
chunkPath=follow_by
arg=officials
chunkPath=precede_will
chunkPath=precede_plan_to
arg=Anwar
arg=Pasko
prevTokenAndType=Justice_said
arg=group
prevToken=But
arg=enron
arg=paper
prevTokenAndType=Justice_against
arg=woman
prevToken=which
arg=brother
chunkPathAndType=Justice_precede_'s
synPathEvType=Justice_poss
synPathEvType=Justice_nsubj
synPathTypes=Justice_PERSON_nsubj
arg=Chiluba
synPathTypes=Justice_PERSON_poss
prevTokenAndType=Justice_where
chunkPathAndType=Justice_precede_will
prevTokenAndType=Justice_after
chunkPathAndType=Justice_precede_be
arg=victims
anchor=sue
prevTokenAndType=Justice_sentence
prevToken=sentence
anchor=suit/n
synPathTypes=Justice_GPE_nsubj
synPath=agent:by:pobj
synPathTypes=Justice_ORGANIZATION_nsubj
prevTokenAndType=Justice_by
chunkPathAndType=Justice_follow_by
arg=house
arg=Bechtel
prevToken=So
prevToken=dropped
prevToken=drop
prevToken=represent
prevTokenAndType=Justice_give
evTypeArg=Sue:he
anchor=lawsuits/n
arg=Anwar_Ibrahim
synPathTypes=Justice_ORGANIZATION_dobj
synPathTypes=Justice_PERSON_nn
prevTokenAndType=Justice_including
synPathEvType=Justice_prep_by
arg=Sam_Sloan
synPathTypes=Personnel_Job-Title_prep_as
arg=ceo
menType=Job-Title
synPathEvType=Personnel_prep_as
synPathTypes=Personnel_Job-Title_cop
evTypeArg=Elect:president
prevTokenAndType=Personnel_new
prevToken=new
chunkPathAndType=Personnel_follow_as
prevTokenAndType=Personnel_elected
chunkPathAndType=Personnel_follow_from
synPathEvType=Personnel_prep_to
prevToken=elected
anchor=retired
anchor=quit
prevTokenAndType=Personnel_as
prevTokenAndType=Personnel_be
prevTokenAndType=Personnel_appointed
chunkPathAndType=Personnel_precede_'s
synPathEvType=Personnel_cop
anchor=new
anchor=removal/n
synPathEvType=Personnel_dobj
prevToken=appointed
prevTokenAndType=Personnel_that
chunkPathAndType=Personnel_precede_have
arg=chief
arg=president
arg=minister
chunkPathAndType=Personnel_precede_be
anchor=leave
anchor=out
anchor=appoint
synPath=cop
anchor=replace
anchor=introduce
prevTokenAndType=Personnel_after
anchor=appointment/n
prevToken=up
chunkPath=follow_as
evTypeArg=End-Position:president
prevTokenAndType=Personnel_put
arg=general
chunkPathAndType=Personnel_follow_ORGANIZATION
evTypeArg=End-Position:minister
prevToken=named
prevTokenAndType=Personnel_named
evTypeArg=End-Position:general
chunkPath=follow_GPE
arg=governor
anchor=re/n
anchor=begin
anchor=did
anchor=nominate
arg=President
prevToken=put
arg=premier
anchor=return/n
arg=executive
arg=prosecutor
prevToken=lost
chunkPath=follow_the
prevToken=became
synPath=prep_as
prevToken=serving
synPathTypes=Contact_PERSON_nn
arg=Annan
prevTokenAndType=Contact_between
evTypeArg=Meet:Bush
synPathEvType=Contact_iobj
evTypeArg=Meet:leaders
evTypeArg=Meet:Tony_Blair
evTypeArg=Meet:bush
evTypeArg=Phone-Write:He
evTypeArg=Meet:members
evTypeArg=Phone-Write:who
synPathTypes=Contact_PERSON_nsubj
synPathEvType=Contact_prep_to
chunkPathAndType=Contact_follow_with
evTypeArg=Meet:who
synPathTypes=Contact_ORGANIZATION_prep_with
chunkPathAndType=Personnel_follow_to
synPathEvType=Contact_prep_of
synPathTypes=Contact_PERSON_poss
chunkPathAndType=Contact_follow_to
evTypeArg=Meet:Putin
anchor=sit
evTypeArg=Meet:us
prevTokenAndType=Contact_told
evTypeArg=Meet:we
prevTokenAndType=Contact_when
evTypeArg=Meet:officials
chunkPathAndType=Contact_follow_of
prevTokenAndType=Contact_what
evTypeArg=Meet:president
evTypeArg=Phone-Write:he
synPathTypes=Contact_PERSON_prep_from
synPathTypes=Contact_PERSON_prep_with
chunkPathAndType=Contact_precede_will
evTypeArg=Meet:he
evTypeArg=Phone-Write:they
chunkPathAndType=Contact_precede_can
synPathTypes=Contact_PERSON_prep_to
evTypeArg=Meet:North_Korea
evTypeArg=Demonstrate:protesters
prevTokenAndType=Contact_that
evTypeArg=Meet:I
evTypeArg=Meet:Annan
evTypeArg=Demonstrate:Iraqis
anchor=write
evTypeArg=Meet:board
evTypeArg=Meet:their
synPathTypes=Contact_ORGANIZATION_nn
prevTokenAndType=Contact_of
anchor=message/n
prevTokenAndType=Contact_is
evTypeArg=Meet:He
synPathEvType=Contact_prep_with
evTypeArg=Phone-Write:I
evTypeArg=Phone-Write:you
synPathTypes=Contact_ORGANIZATION_prep_to
prevTokenAndType=Contact_by
evTypeArg=Meet:George_W._Bush
evTypeArg=Meet:shareholders
chunkPathAndType=Contact_precede_have
prevTokenAndType=Contact_``
evTypeArg=Phone-Write:we
synPathTypes=Personnel_ORGANIZATION_prep_to
synPathEvType=Contact_prep_between
evTypeArg=Phone-Write:us
prevTokenAndType=Contact_''
synPathEvType=Contact_nsubj
synPathTypes=Contact_PERSON_dobj
evTypeArg=Meet:minister
evTypeArg=Meet:they
prevTokenAndType=Contact_where
evTypeArg=Meet:Al-Douri
chunkPathAndType=Contact_follow_between
synPathTypes=Personnel_ORGANIZATION_dobj
synPathTypes=Personnel_ORGANIZATION_nsubj
evTypeArg=Phone-Write:people
prevTokenAndType=Contact_"
prevTokenAndType=Contact_with
prevTokenAndType=Contact_)
prevTokenAndType=Contact_-
synPathTypes=Contact_PERSON_iobj
chunkPathAndType=Personnel_follow_by
prevTokenAndType=Personnel_if
prevTokenAndType=Personnel_with
prevToken=elect
anchor=previously
prevTokenAndType=Personnel_says
arg=Colin_Powell
prevTokenAndType=Personnel_elect
arg=Rumsfeld
arg=Al-Douri
prevToken=before
chunkPath=follow_,
prevToken=think
prevToken=only
arg=somebody
arg=parents
prevToken=if
arg=you
arg=leaders
arg=Iraqis
prevToken=And
arg=Americans
arg=leader
arg=employees
arg=son
prevToken=''
arg=children
arg=daughter
chunkPath=precede_be_to
chunkPath=precede_be_be
chunkPath=precede_'
anchor=start
dist=21
dist=19
anchor=join
anchor=head/n
anchor=return
anchor=transfer
anchor=walk
prevTokenAndType=Justice_on
prevTokenAndType=Personnel_by
prevTokenAndType=Personnel_--
synPathEvType=Personnel_nsubj
arg=I
arg=your
chunkPath=precede_go_to
arg=Bush
prevToken=have
arg=killer
chunkPath=precede_want_to
arg=head
anchor=select
prevTokenAndType=Justice_when
arg=Saddam
prevToken=saying
chunkPath=precede_might
arg=bush
chunkPath=precede_can
arg=our
prevToken=once
prevToken=has
arg=guy
anchor=hold
arg=Putin
anchor=end
anchor=run
anchor=force
chunkPath=precede_go_to_be
chunkPath=precede_could_be
prevTokenAndType=Personnel_since
synPathTypes=Justice_PERSON_dobj
chunkPathAndType=Justice_precede_be_be
arg=sam_waksal
arg=judge
arg=commanders
prevTokenAndType=Conflict_that
anchor=that
prevToken=left
arg=Yasser_Arafat
arg=They
prevToken=while
arg=American
arg=troops
prevToken=``
arg=mother
chunkPath=precede_will_be
prevToken=long
chunkPath=precede_'d
arg=Palestinians
arg=sons
arg=two
prevToken=reports
arg=some
arg=me
arg=american
arg=saddam_hussein
arg=diplomats
arg=many
prevToken=leaving
prevToken=let
prevToken=When
chunkPath=follow_,_include
synPathEvType=Contact_poss
synPathEvType=Personnel_advmod
prevTokenAndType=Contact_meet
prevTokenAndType=Contact_after
anchor=e-mail
prevTokenAndType=Contact_as
anchor=protest
anchor=interview/n
anchor=tell
anchor=discuss
chunkPathAndType=Contact_precede_'s
prevToken=then
prevToken=meet
anchor=trip/n
anchor=visit/n
synPathEvType=Conflict_nsubj
anchor=attend
anchor=phone/n
prevTokenAndType=Contact_a
prevTokenAndType=Contact_for
prevToken=met
prevTokenAndType=Contact_met
chunkPathAndType=Justice_precede_to
anchor=hear
synPathTypes=Personnel_GPE_nsubj
arg=delegates
arg=fbi
chunkPath=precede_'ll
arg=Palestinian
arg=We
prevToken=not
arg=regime
chunkPath=precede_'ve
prevToken=between
arg=administration
prevToken=who
arg=police
arg=Kurds
arg=guys
arg=AIG
prevToken=brought
arg=kramers
arg=that
chunkPath=precede_didn't
prevToken=asked
arg=EU
prevToken=Because
arg=Germany
arg=MCI
arg=family
prevToken=ordered
arg=USCF
arg=George_W._Bush
chunkPath=precede_have_(_negated_)
synPathTypes=Conflict_PERSON_amod
chunkPath=precede_-_GPE
chunkPathAndType=Conflict_precede_go_to
synPathTypes=Conflict_PERSON_prep_by
synPathTypes=Conflict_PERSON_dobj
synPathTypes=Conflict_PERSON_nsubj
prevToken=sure
arg=team
arg=unit
chunkPath=follow_in_GPE_,
arg=army
chunkPath=precede_may_have
arg=which
prevToken=what
chunkPath=follow_between
synPath=prep_between
synPathEvType=Conflict_prep_by
chunkPathAndType=Conflict_follow_by
arg=protesters
synPathTypes=Conflict_PERSON_prep_of
arg=friends
prevToken=visited
arg=airline
arg=firm
arg=representatives
arg=Tony_Blair
chunkPath=precede_schedule_to
arg=Kelly
anchor=retreat/n
arg=friend
prevToken=told
arg=sides
chunkPath=follow_out-of
chunkPath=precede_don't
anchor=talks/n
arg=Vivendi
arg=party
anchor=forum/n
synPathEvType=Personnel_prep_from
prevTokenAndType=Contact_said
arg=stewart
arg=judges
prevTokenAndType=Personnel_Cabinet
synPathEvType=Life_prep_to
prevTokenAndType=Personnel_think
evTypeArg=End-Position:members
synPathTypes=Personnel_PERSON_poss
evTypeArg=Elect:he
evTypeArg=Start-Position:figures
evTypeArg=Elect:Bush
evTypeArg=Elect:Sistani
evTypeArg=Arrest-Jail:he
chunkPath=precede_would_you
chunkPath=follow_president
evTypeArg=Start-Position:he
arg=Tvrdik
evTypeArg=Start-Position:Who
evTypeArg=Start-Position:they
prevToken=appoint
chunkPath=precede_would_like_to_see
synPathTypes=Personnel_PERSON_dobj
arg=Sistani
anchor=ceremony/n
evTypeArg=End-Position:she
evTypeArg=Arrest-Jail:him
synPathTypes=Personnel_PERSON_nn
chunkPathAndType=Personnel_precede_'m
evTypeArg=End-Position:people
prevTokenAndType=Personnel_which
evTypeArg=End-Position:him
evTypeArg=End-Position:her
evTypeArg=End-Position:Colin_Powell
prevTokenAndType=Personnel_hire
evTypeArg=Start-Position:her
chunkPathAndType=Personnel_precede_would_like_to_see
prevTokenAndType=Personnel_fired
prevTokenAndType=Personnel_-
prevTokenAndType=Personnel_)
prevToken=hire
chunkPathAndType=Personnel_follow_president
prevTokenAndType=Personnel_when
evTypeArg=Be-Born:child
arg=CEO
synPathTypes=Life_PERSON_prep_to
evTypeArg=Arrest-Jail:people
evTypeArg=Release-Parole:your
chunkPathAndType=Personnel_precede_would_you
synPathTypes=Personnel_PERSON_prep_of
evTypeArg=End-Position:he
arg=figures
evTypeArg=Divorce:his
prevToken=Cabinet
chunkPathAndType=Personnel_precede_get
evTypeArg=Start-Position:people
prevTokenAndType=Personnel_appoint
evTypeArg=End-Position:CEO
evTypeArg=Start-Position:He
chunkPathAndType=Personnel_precede_,
prevTokenAndType=Personnel_fire
synPathTypes=Life_PERSON_nn
synPathEvType=Life_prep_of
arg=husband
synPathTypes=Life_PERSON_amod
arg=child
synPathTypes=Life_PERSON_poss
synPathTypes=Life_PERSON_prep_of
chunkPathAndType=Life_follow_to
arg=Who
chunkPathAndType=Life_precede_have_be
chunkPathAndType=Life_precede_'s
prevTokenAndType=Life_and
synPathTypes=Life_PERSON_nsubj
synPathEvType=Life_dobj
prevTokenAndType=Life_after
prevTokenAndType=Life_think
prevTokenAndType=Life_because
prevTokenAndType=Life_but
chunkPathAndType=Life_follow_,
synPathTypes=Life_PERSON_dobj
prevTokenAndType=Life_if
prevTokenAndType=Life_that
prevTokenAndType=Life_)
prevTokenAndType=Life_before
prevToken=say
prevToken=had
arg=man
prevToken=are
arg=father
arg=men
arg=Saddam_Hussein
arg=pilots
chunkPath=precede_could
anchor=do
prevToken=why
chunkPath=precede_be_in
arg=Shah
arg=baby
arg=boy
chunkPath=precede_,_be
synPath=dobj:lot:prep_of
arg=officers
arg=my
prevTokenAndType=Life_--
prevTokenAndType=Life_out
prevTokenAndType=Life_with
chunkPathAndType=Life_follow_of
prevTokenAndType=Life_for
prevTokenAndType=Life_about
arg=three
prevToken=arrested
anchor=wedding/n
prevToken=On
anchor=divorce
prevTokenAndType=Justice_arrested
anchor=resignation/n
prevToken=fire
anchor=capture/n
anchor=lift
anchor=extradite
anchor=detain
prevToken=until
prevToken=during
anchor=parole/n
evTypeArg=Arrest-Jail:they
chunkPath=precede_should_be
evTypeArg=Arrest-Jail:you
prevToken=me
arg=cleric
synPathTypes=Personnel_PERSON_nsubj
arg=suspect
arg=serious
prevToken=allow
arg=Tugle
arg=nichols
chunkPath=precede_would
chunkPath=precede_'m
arg=luster
anchor=extradition/n
anchor=custody/n
arg=peterson
arg=girls
arg=Giuliani
arg=terrorist
prevToken=engage
arg=personnel
prevToken=want
arg=militants
arg=Toefting
arg=Ba'asyir
arg=sympathizers
arg=minor
synPath=xcomp
chunkPath=precede_be_to_be
prevToken=see
prevToken=bring
prevToken=fired
anchor=departure/n
synPathTypes=Justice_PERSON_iobj
arg=murderer
prevToken=sued
synPathEvType=Justice_iobj
chunkPath=precede_face
arg=martha_stewart
prevTokenAndType=Justice_say
prevTokenAndType=Justice_before
prevTokenAndType=Justice_think
prevTokenAndType=Justice_but
prevTokenAndType=Justice_with
prevTokenAndType=Justice_if
chunkPathAndType=Justice_precede_,_be
chunkPathAndType=Justice_precede_have_be
prevTokenAndType=Justice_got
arg=THOUSANDS
prevTokenAndType=Life_leader
synPath=objcomp:Laci:cc:and:conj
evTypeArg=Injure:others
synPathEvType=Life_objcomp:Laci:cc:and:conj
evTypeArg=Die:Arafat
chunkPathAndType=Life_follow_,_include
evTypeArg=Injure:children
prevTokenAndType=Life_whether
evTypeArg=Injure:people
evTypeArg=Die:civilians
evTypeArg=Die:THOUSANDS
chunkPath=follow_PERSON_and
prevToken=murdering
evTypeArg=Die:wife
arg=Jews
evTypeArg=Die:Jews
evTypeArg=Die:son
evTypeArg=Injure:he
prevTokenAndType=Life_surrounding
evTypeArg=Die:journalist
prevTokenAndType=Life_kill
evTypeArg=Die:civilian
evTypeArg=Die:He
anchor=died
chunkPathAndType=Life_precede_,_be
prevTokenAndType=Life_wounding
prevTokenAndType=Life_lost
prevTokenAndType=Life_injuring
prevTokenAndType=Life_murdering
prevToken=surrounding
synPathTypes=Life_PERSON_objcomp:Laci:cc:and:conj
evTypeArg=Die:Americans
prevToken=leader
evTypeArg=Die:children
prevTokenAndType=Life_which
arg=crew
chunkPath=precede_illness_and
chunkPathAndType=Life_follow_PERSON_and
evTypeArg=Die:crew
evTypeArg=Die:Marines
chunkPathAndType=Life_precede_illness_and
prevTokenAndType=Life_injured
anchor=injured
anchor=loss/n
prevTokenAndType=Life_:
prevTokenAndType=Movement_,
prevToken=been
anchor=assassinate
prevToken=injured
prevToken=MALE
prevTokenAndType=Life_since
synPath=det
evTypeArg=Die:her
prevTokenAndType=Life_including
prevTokenAndType=Life_killing
synPathTypes=Life_PERSON_num
chunkPathAndType=Life_precede_have
prevTokenAndType=Life_where
evTypeArg=Die:woman
evTypeArg=Die:Yasser_Arafat
evTypeArg=Die:his
evTypeArg=Die:soldier
evTypeArg=Die:women
evTypeArg=Die:they
evTypeArg=Die:soldiers
evTypeArg=Die:members
evTypeArg=Die:group
evTypeArg=Injure:one
prevTokenAndType=Life_say
evTypeArg=Die:bomber
evTypeArg=Die:mother
evTypeArg=Die:you
evTypeArg=Die:troops
evTypeArg=Die:Iraqis
evTypeArg=Die:who
evTypeArg=Die:she
evTypeArg=Die:person
synPathEvType=Life_num
evTypeArg=Die:journalists
evTypeArg=Die:people
evTypeArg=Die:he
evTypeArg=Die:men
evTypeArg=Die:man
evTypeArg=Die:terrorists
arg=Sharif
arg=attackers
anchor=beat
arg=those
prevToken=killing
anchor=poison
arg=terrorists
arg=Marines
arg=soldiers
arg=soldier
arg=bomber
arg=journalists
evTypeArg=Transport:who
anchor=hurt
anchor=blind
prevTokenAndType=Life_by
anchor=deadly
synPath=num
arg=others
arg=attacker
arg=israelis
arg=civilians
evTypeArg=Attack:person
arg=fighters
arg=Israelis
arg=enemy
arg=iraqis
prevToken=As
prevToken=wounding
prevToken=kill
prevToken=injuring
prevToken=perhaps
arg=grandmother
arg=civilian
arg=Ferguson
prevToken=caused
arg=more
arg=Most
arg=convoy
prevToken=shot
arg=4-year-old
arg=journalist
prevToken=keep
arg=passengers
prevToken=now
prevToken=off
chunkPath=follow_off
arg=sister
evTypeArg=Elect:January
arg=last_week
synPathTypes=Conflict_Time_poss
evTypeArg=Attack:Monday
arg=Sunday_morning
synPathTypes=Life_Time_tmod
evTypeArg=Die:last_week
synPathEvType=Movement_tmod
prevTokenAndType=Conflict_during
evTypeArg=Die:today
synPathTypes=Movement_Time_tmod
prevTokenAndType=Life_hospital
evTypeArg=Injure:Tuesday
synPathEvType=Justice_tmod
synPathTypes=Conflict_Time_tmod
arg=recently
chunkPathAndType=Life_follow_in_hospital
evTypeArg=Transport:Wednesday
synPathTypes=Movement_Time_prep_on
arg=1985
arg=1991
arg=1992
arg=1995
synPathTypes=Justice_Time_tmod
evTypeArg=Attack:1994
evTypeArg=Attack:1991
evTypeArg=Meet:today
prevToken=hospital
synPath=tmod:morning:det
synPathTypes=Personnel_Time_amod
synPathTypes=Conflict_Time_nn
evTypeArg=Die:Monday
arg=recent
synPathEvType=Contact_tmod
arg=yesterday
synPathTypes=Contact_Time_prep_on
synPathEvType=Conflict_tmod
synPathTypes=Contact_Time_prep_in
arg=february
arg=2001
arg=2004
evTypeArg=Attack:tonight
chunkPathAndType=Personnel_precede_GPE_otherName
arg=early_Friday
synPathEvType=Life_tmod:week:amod
synPathTypes=Contact_Time_tmod
arg=September
synPathTypes=Business_Time_prep_in
arg=january
chunkPath=precede_GPE_otherName
evTypeArg=Attack:Sunday
synPathTypes=Life_Time_tmod:week:amod
synPathEvType=Life_tmod
prevToken=another
evTypeArg=Transport:now
synPath=tmod:year:amod
synPathTypes=Life_Time_prep_in
chunkPath=follow_in_hospital
evTypeArg=Elect:recent
synPathTypes=Justice_Time_advmod
synPath=tmod:weekend:det
arg=April_30
synPathTypes=Justice_Time_prep_in
arg=this_weekend
anchor=move/n
prevTokenAndType=Movement_that
anchor=fly
anchor=arrive
prevTokenAndType=Movement_by
anchor=move
chunkPathAndType=Movement_precede_
chunkPathAndType=Movement_follow_
prevTokenAndType=Movement_.
anchor=smuggle
synPathEvType=Movement_advmod
chunkPathAndType=Movement_precede_be
chunkPathAndType=Movement_precede_to
anchor=carry
prevTokenAndType=Movement_but
anchor=withdrawal/n
anchor=mission/n
synPathEvType=Movement_amod
chunkPathAndType=Movement_precede_and
prevTokenAndType=Business_that
anchor=form
chunkPathAndType=Business_precede_
prevToken=just
prevToken=sentenced
chunkPathAndType=Conflict_precede_'s
prevTokenAndType=Conflict_Iraq
prevToken=attack
prevTokenAndType=Conflict_said
prevTokenAndType=Conflict_"
prevTokenAndType=Conflict_killed
anchor=abuse/n
chunkPathAndType=Conflict_precede_have_be
prevTokenAndType=Conflict_:
prevTokenAndType=Conflict_after
anchor=shootings/n
synPathEvType=Conflict_poss
anchor=lob
anchor=incursion/n
prevToken=Iraq
prevTokenAndType=Conflict_before
chunkPathAndType=Conflict_precede_engage_in_major
chunkPath=precede_engage_in_major
prevToken=bombing
prevTokenAndType=Conflict_bombing
anchor=crossfire/n
prevToken=gave
anchor=export
anchor=sale/n
prevTokenAndType=Movement_until
synPath=tmod:week:amod
anchor=travel
anchor=advance/n
chunkPathAndType=Movement_follow_in
anchor=arrival/n
anchor=sail
anchor=jump
anchor=traveling/n
anchor=flight/n
prevTokenAndType=Movement_in
synPathEvType=Movement_prep_in
anchor=flee
anchor=journey/n
anchor=cross
prevTokenAndType=Movement_on
anchor=rumble
anchor=travel/n
anchor=advance
prevTokenAndType=Movement_over
anchor=push/n
anchor=enter
prevTokenAndType=Movement_the
prevTokenAndType=Movement_since
chunkPathAndType=Movement_follow_on
synPathEvType=Movement_whadvmod
synPathEvType=Movement_prep_on
prevTokenAndType=Movement_at
synPathEvType=Movement_prep_to
prevTokenAndType=Movement_is
prevTokenAndType=Movement_left
evTypeArg=Attack:today
arg=January
arg=tonight
evTypeArg=Meet:Friday
arg=two-day
evTypeArg=Meet:two-day
prevToken=end
menType=Time
arg=today
arg=Friday
synPathTypes=Movement_Time_prep_in
arg=this_morning
arg=1994
arg=Thursday
arg=tomorrow
synPathTypes=Conflict_Time_prep_in
synPathEvType=Movement_prep_from
chunkPathAndType=Conflict_precede_of
arg=currently
chunkPath=precede_of
evTypeArg=Meet:Wednesday
evTypeArg=Attack:nine_eleven
arg=a_month
menType=Age
prevTokenAndType=Justice_for
synPathEvType=Movement_prep
synPathTypes=Movement_Time_prep
arg=now
arg=Wednesday
arg=nine_eleven
chunkPathAndType=Justice_follow_for
prevTokenAndType=Business_on
chunkPath=precede_file_for
chunkPath=follow_to_GPE
chunkPathAndType=Movement_follow_to_GPE
synPathTypes=Movement_Time_advmod
synPathTypes=Conflict_Time_advmod
chunkPath=follow_in_GPE
arg=Sunday
evTypeArg=Transport:Sunday
arg=Saturday
evTypeArg=Transport:Monday
arg=Monday
arg=March_20
synPathTypes=Personnel_Time_tmod
evTypeArg=Attack:March_20
synPathEvType=Personnel_tmod
arg=1998
arg=1999
synPathTypes=Personnel_Time_prep_in
prevToken=erupted
arg=Tuesday
arg=last_year
synPath=tmod
prevToken=began
evTypeArg=Meet:Tuesday
evTypeArg=Attack:Tuesday
evTypeArg=Transport:today
evTypeArg=Meet:tomorrow
arg=next_week
prevToken=her
prevTokenAndType=Justice_:
prevTokenAndType=Justice_until
prevToken=convicted
prevTokenAndType=Justice_convicted
prevToken=here
prevTokenAndType=Justice_sentenced
anchor=acquit
anchor=indict
anchor=pled
anchor=prosecution/n
prevToken=his
synPathEvType=Justice_amod
prevTokenAndType=Justice_his
chunkPath=precede_,_PERSON
synPathTypes=Movement_ORGANIZATION_nsubj
evTypeArg=Arrest-Jail:police
chunkPathAndType=Life_precede_find_guilty_of
evTypeArg=Arrest-Jail:we
chunkPathAndType=Business_follow_by
evTypeArg=Die:Scott_Peterson
evTypeArg=Start-Org:they
synPathTypes=Business_PERSON_nsubj
synPathTypes=Movement_GPE_nsubj
chunkPath=precede_find_guilty_of
chunkPathAndType=Life_follow_by
prevTokenAndType=Life_Trial
chunkPath=precede_do
arg=military
chunkPath=precede_begin
arg=sniper
arg=commandos
arg=militia
arg=forces
arg=force
arg=hamas
arg=extremists
arg=coalition
chunkPath=precede_--
arg=mob
arg=gunman
arg=troop
synPath=vch
arg=militant
arg=malvo
prevToken=prevent
anchor=kick
chunkPath=precede_from
evTypeArg=Transport:They
synPathTypes=Movement_PERSON_nsubj
evTypeArg=Transport:He
evTypeArg=Transport:soldiers
chunkPathAndType=Movement_precede_expect_to
chunkPathAndType=Movement_precede_could
evTypeArg=Transport:you
prevTokenAndType=Movement_have
synPathTypes=Movement_PERSON_dobj
evTypeArg=Transport:I
evTypeArg=Transport:that
evTypeArg=Transport:us
evTypeArg=Transport:we
chunkPathAndType=Movement_precede_'ll
evTypeArg=Transport:officials
chunkPathAndType=Movement_precede_have_to
prevTokenAndType=Movement_say
evTypeArg=Transport:troops
evTypeArg=Transport:We
chunkPathAndType=Movement_precede_try_to
evTypeArg=Transport:she
chunkPath=precede_try_to
evTypeArg=Transport:he
evTypeArg=Transport:forces
prevTokenAndType=Movement_where
chunkPathAndType=Movement_precede_will_be
anchor=tour/n
anchor=direct
chunkPathAndType=Movement_precede_have
prevTokenAndType=Movement_)
anchor=launch/n
prevTokenAndType=Movement_and
prevTokenAndType=Movement_to
prevTokenAndType=Movement_of
synPathEvType=Movement_dobj
prevTokenAndType=Movement_as
anchor=transport
anchor=bring
anchor=deport
anchor=airlifting
anchor=haul
anchor=deploy
prevTokenAndType=Movement_for
chunkPathAndType=Movement_precede_will
synPathEvType=Movement_nsubj
evTypeArg=Transport:they
prevTokenAndType=Movement_when
prevTokenAndType=Movement_with
anchor=expel
evTypeArg=Transport:people
chunkPathAndType=Movement_follow_by
chunkPathAndType=Movement_precede_have_be
anchor=evacuate
anchor=clear
prevTokenAndType=Movement_said
synPathTypes=Movement_GPE_advmod
synPathTypes=Movement_GPE_amod
synPathTypes=Movement_GPE_dobj
evTypeArg=Transport:United_States
evTypeArg=Transport:Turkey
prevToken=After
prevTokenAndType=Business_)
prevTokenAndType=Business_,
prevTokenAndType=Business_.
prevTokenAndType=Business_and
synPathEvType=Business_nsubj
prevTokenAndType=Business_by
arg=Scott_Peterson
arg=Peterson
prevToken=Trial
synPathTypes=Justice_GPE_dobj
prevTokenAndType=Justice_are
anchor=park
evTypeArg=Transfer-Money:USCF
prevTokenAndType=Transaction_as
prevTokenAndType=Transaction_if
synPathTypes=Transaction_GPE_nsubj
prevTokenAndType=Transaction_when
chunkPathAndType=Transaction_follow_by
arg=lobby
chunkPathAndType=Transaction_follow_from
synPathEvType=Transaction_prep_from
synPathTypes=Transaction_PERSON_prep_from
arg=Vivendi_Universal
synPathTypes=Transaction_ORGANIZATION_prep_from
synPathTypes=Conflict_PERSON_nn
evTypeArg=Attack:militants
evTypeArg=Attack:North_Korea
synPathTypes=Conflict_ORGANIZATION_nsubj
evTypeArg=Attack:Japan
evTypeArg=Attack:america
evTypeArg=Attack:groups
synPathTypes=Conflict_GPE_poss
evTypeArg=Attack:terrorist
evTypeArg=Attack:U.S
evTypeArg=Attack:u.s
chunkPathAndType=Conflict_follow_between
evTypeArg=Attack:Palestinian
evTypeArg=Attack:US
evTypeArg=Attack:group
evTypeArg=Attack:israeli
synPathTypes=Conflict_ORGANIZATION_amod
evTypeArg=Attack:coalition
synPathTypes=Conflict_GPE_nsubj
evTypeArg=Attack:military
prevTokenAndType=Conflict_are
evTypeArg=Attack:troops
evTypeArg=Attack:man
evTypeArg=Attack:Republican_Guard
prevTokenAndType=Conflict_including
evTypeArg=Attack:soldiers
prevTokenAndType=Conflict_whether
evTypeArg=Attack:members
prevTokenAndType=Conflict_killing
evTypeArg=Attack:he
evTypeArg=Attack:others
evTypeArg=Attack:They
evTypeArg=Attack:iraqis
prevTokenAndType=Conflict_engage
evTypeArg=Attack:woman
evTypeArg=Attack:units
evTypeArg=Attack:Marines
evTypeArg=Attack:forces
evTypeArg=Attack:terrorists
evTypeArg=Attack:civilians
evTypeArg=Attack:Israelis
evTypeArg=Attack:who
prevTokenAndType=Conflict_where
prevTokenAndType=Conflict_attack
prevTokenAndType=Conflict_)
anchor=punch/n
evTypeArg=Attack:she
anchor=targeting
evTypeArg=Attack:We
evTypeArg=Attack:Saddam
arg=Republican_Guard
evTypeArg=Attack:militia
evTypeArg=Attack:her
evTypeArg=Attack:regime
evTypeArg=Attack:him
evTypeArg=Attack:his
evTypeArg=Attack:you
evTypeArg=Attack:Iraqis
evTypeArg=Attack:fighters
evTypeArg=Attack:those
evTypeArg=Attack:hamas
arg=units
arg=7th_Cavalry
arg=division
anchor=push
arg=parts
chunkPathAndType=Conflict_follow_,
prevTokenAndType=Conflict_if
evTypeArg=Attack:one
prevTokenAndType=Conflict_say
evTypeArg=Attack:they
evTypeArg=Attack:them
prevTokenAndType=Conflict_out
prevTokenAndType=Conflict_about
prevTokenAndType=Conflict_which
arg=marines
chunkPathAndType=Conflict_precede_have
anchor=use/n
prevTokenAndType=Conflict_have
prevTokenAndType=Conflict_had
evTypeArg=Attack:bomber
prevTokenAndType=Conflict_why
prevTokenAndType=Conflict_between
prevToken=firing
prevTokenAndType=Conflict_--
prevTokenAndType=Conflict_perhaps
arg=divisions
synPathTypes=Conflict_ORGANIZATION_dobj
evTypeArg=Attack:convoy
synPathTypes=Conflict_VEH_prep_on
prevTokenAndType=Conflict_targeting
prevToken=targeting
chunkPath=follow_and_kill
chunkPathAndType=Conflict_follow_and_kill
prevToken=slaughtered
evTypeArg=Attack:divisions
synPathTypes=Conflict_PERSON_prep_on
prevToken=destroyed
prevTokenAndType=Conflict_destroyed
prevTokenAndType=Conflict_slaughtered
synPathTypes=Conflict_PERSON_prep_at
evTypeArg=Attack:journalists
synPathTypes=Conflict_PERSON_prep_against
evTypeArg=Attack:bus
evTypeArg=Attack:boy
arg=target
prevToken=make
arg=cars
arg=plane
menType=VEH
arg=car
arg=tanks
arg=aircraft
arg=ship
menType=WEA
arg=site
chunkPath=follow_towards
arg=bus
arg=planes
arg=helicopter
arg=vehicles
evTypeArg=Attack:aircraft
evTypeArg=Attack:planes
evTypeArg=Attack:guns
evTypeArg=Attack:car
synPathTypes=Conflict_VEH_dobj
evTypeArg=Attack:ship
prevTokenAndType=Conflict_shot
synPathTypes=Conflict_VEH_nsubj
evTypeArg=Attack:tanks
evTypeArg=Attack:helicopter
arg=guns
prevToken=clear
evTypeArg=Transfer-Ownership:she
anchor=buys
anchor=acquisition/n
evTypeArg=Transfer-Ownership:them
anchor=control/n
anchor=bid/n
evTypeArg=Transfer-Ownership:company
evTypeArg=Transfer-Ownership:they
anchor=purchase
anchor=purchase/n
anchor=swallow
evTypeArg=Transfer-Ownership:troops
evTypeArg=Transfer-Ownership:forces
evTypeArg=Transfer-Ownership:Iran
prevToken=send
evTypeArg=Transport:him
prevToken=sell
evTypeArg=Transfer-Ownership:airport
prevTokenAndType=Movement_sent
prevToken=provides
prevTokenAndType=Movement_send
prevTokenAndType=Transaction_sell
evTypeArg=Transport:their
chunkPathAndType=Movement_precede_want_to
prevTokenAndType=Movement_before
synPathEvType=Movement_nn
synPathTypes=Movement_PERSON_nn
evTypeArg=Transfer-Ownership:base
evTypeArg=Transport:bush
evTypeArg=Transport:Bush
evTypeArg=Transport:person
synPathTypes=Transaction_ORGANIZATION_prep_of
synPathTypes=Transaction_WEA_dobj
chunkPathAndType=Movement_precede_can
synPathEvType=Movement_poss
evTypeArg=Transport:our
synPathTypes=Movement_PERSON_poss
evTypeArg=Transfer-Ownership:weapons
prevTokenAndType=Movement_:
evTypeArg=Transport:Iraqis
evTypeArg=Transport:journalists
chunkPathAndType=Movement_precede_'s
evTypeArg=Transport:president
synPathTypes=Transaction_FACILITY_dobj
anchor=approach
synPathEvType=Movement_prep_for
prevTokenAndType=Movement_get
anchor=penetrate
chunkPathAndType=Movement_follow_over
evTypeArg=Transport:unit
arg=base
anchor=thrust
anchor=withdraw
prevTokenAndType=Movement_make
prevTokenAndType=Movement_-
anchor=show
anchor=landing/n
anchor=roll
prevTokenAndType=Movement_--
evTypeArg=Transport:some
anchor=land
evTypeArg=Transport:it
anchor=voyage/n
chunkPathAndType=Movement_follow_of
prevTokenAndType=Movement_see
prevTokenAndType=Movement_through
anchor=follow
anchor=way/n
prevTokenAndType=Movement_from
anchor=pour
anchor=due
anchor=close
prevToken=sending
evTypeArg=Transport:rovers
synPathEvType=Movement_vch
prevTokenAndType=Movement_As
prevTokenAndType=Movement_sending
evTypeArg=Transport:plane
arg=rovers
synPathTypes=Movement_VEH_dobj
synPathTypes=Movement_VEH_nsubj
prevTokenAndType=Movement_take
prevTokenAndType=Movement_took
evTypeArg=Transport:car
prevTokenAndType=Movement_after
prevTokenAndType=Movement_because
arg=rifle
arg=missiles
arg=weapons
arg=arms
arg=ammunition
evTypeArg=Transfer-Ownership:it
prevTokenAndType=Transaction_buy
prevToken=buy
synPathEvType=Movement_prep_of
evTypeArg=Transport:her
arg=silver_cross
arg=business
arg=Ocalan
prevToken=ship
chunkPathAndType=Transaction_follow_for
synPathEvType=Movement_prep_at
arg=planet
prevTokenAndType=Movement_up
prevTokenAndType=Movement_enter
evTypeArg=Transport:there
synPathTypes=Movement_FACILITY_prep_into
chunkPath=follow_back_to
synPathTypes=Movement_LOCATION_prep_to
synPathTypes=Movement_FACILITY_advmod:back:prep_to
evTypeArg=Transport:territory
synPathTypes=Movement_FACILITY_advmod
evTypeArg=Transport:Seoul
synPath=advmod:back:prep_to
evTypeArg=Transport:mars
prevTokenAndType=Movement_entering
prevTokenAndType=Movement_along
synPathTypes=Movement_GPE_prep_into
synPathTypes=Movement_FACILITY_prep_at
synPathEvType=Movement_prep_over
chunkPathAndType=Movement_follow_at
synPathTypes=Movement_GPE_advmod:back:prep_to
synPathTypes=Movement_LOCATION_advmod
synPathTypes=Movement_GPE_xcomp
prevTokenAndType=Movement_visited
arg=Boston
prevTokenAndType=Movement_reached
evTypeArg=Transport:Boston
prevToken=coming
synPathEvType=Movement_advmod:back:prep_to
synPathTypes=Movement_GPE_prep_in
synPathTypes=Movement_GPE_prep_on
synPathEvType=Movement_xcomp
synPathTypes=Movement_LOCATION_prep_into
evTypeArg=Transport:planet
arg=New_England
prevTokenAndType=Movement_towards
evTypeArg=Transport:base
chunkPathAndType=Movement_follow_back_to
evTypeArg=Transport:house
prevTokenAndType=Movement_come
prevTokenAndType=Movement_coming
evTypeArg=Transport:New_England
synPathEvType=Movement_prep_into
evTypeArg=Transport:center
prevToken=come
chunkPathAndType=Movement_follow_to
synPathEvType=Movement_prep_through
evTypeArg=Transport:here
arg=jurisdiction
arg=Niagara_Falls
synPathTypes=Movement_LOCATION_dobj
synPathEvType=Movement_prep_toward
evTypeArg=Transport:Kuwait
evTypeArg=Transport:state
synPathTypes=Movement_FACILITY_dobj
chunkPathAndType=Movement_follow_her_to
synPathTypes=Movement_FACILITY_prep_to
evTypeArg=Transport:outskirts
synPathTypes=Movement_GPE_prep_toward
evTypeArg=Transport:home
evTypeArg=Transport:baghdad
evTypeArg=Transport:area
arg=Afghanistan
evTypeArg=Transport:city
prevToken=toward
synPathTypes=Movement_GPE_prep_to
evTypeArg=Transport:border
evTypeArg=Transport:building
evTypeArg=Transport:desert
chunkPathAndType=Movement_follow_toward
evTypeArg=Transport:Baghdad
evTypeArg=Transport:airport
chunkPath=follow_through
evTypeArg=Transport:country
evTypeArg=Transport:iraq
synPath=prep_toward
evTypeArg=Transport:Afghanistan
prevTokenAndType=Movement_toward
evTypeArg=Transport:hospital
chunkPathAndType=Movement_follow_through
chunkPath=follow_toward
evTypeArg=Transport:London
evTypeArg=Transport:capital
evTypeArg=Transport:Niagara_Falls
evTypeArg=Transport:town
prevTokenAndType=Movement_a
prevTokenAndType=Movement_between
chunkPath=follow_her_to
prevToken=reached
chunkPath=follow_him_to
prevTokenAndType=Movement_aboard
prevToken=aboard
evTypeArg=Transport:tanks
evTypeArg=Transport:vehicles
arg=rocket
arg=carrier
prevToken=using
prevTokenAndType=Movement_leaving
chunkPathAndType=Movement_follow_out-of
synPathTypes=Conflict_WEA_nn
evTypeArg=Injure:bullet
evTypeArg=Die:explosives
evTypeArg=Attack:arms
prevTokenAndType=Life_second
evTypeArg=Attack:bomb
evTypeArg=Attack:weapons
arg=rounds
evTypeArg=Die:bomb
evTypeArg=Attack:explosives
prevTokenAndType=Conflict_fired
arg=bombs
arg=warplanes
evTypeArg=Attack:anthrax
arg=missile
arg=gun
arg=artillery
arg=bomb
evTypeArg=Attack:bombs
evTypeArg=Attack:warplanes
arg=anthrax
prevTokenAndType=Conflict_detonated
prevToken=opened
evTypeArg=Attack:missiles
synPathTypes=Conflict_WEA_amod
arg=mortars
arg=explosives
prevToken=suicide
synPathTypes=Conflict_WEA_dobj
prevTokenAndType=Conflict_using
synPathTypes=Conflict_WEA_nsubj
prevTokenAndType=Life_detonated
arg=knife
prevTokenAndType=Conflict_dropped
prevToken=detonated
evTypeArg=Attack:artillery
prevToken=second
evTypeArg=Attack:missile
prevTokenAndType=Conflict_drop
evTypeArg=Attack:gun
arg=bullet
evTypeArg=Transfer-Ownership:him
synPathTypes=Contact_Time_num
synPathEvType=Contact_num
synPathTypes=Movement_LOCATION_prep_from
synPathTypes=Movement_GPE_prep_from
chunkPathAndType=Movement_follow_from
synPathTypes=Movement_FACILITY_prep_from
synPathTypes=Movement_GPE_prep_of
prevTokenAndType=Movement_leave
evTypeArg=End-Org:regime
chunkPathAndType=Business_follow_of
chunkPathAndType=Business_precede_file_for
anchor=merge
prevTokenAndType=Business_of
chunkPathAndType=Business_precede_be
prevTokenAndType=Business_up
synPathTypes=Business_ORGANIZATION_dobj
synPathTypes=Business_ORGANIZATION_prep_of
evTypeArg=Declare-Bankruptcy:enron
prevTokenAndType=Business_with
evTypeArg=Start-Org:government
anchor=merger/n
synPathTypes=Business_ORGANIZATION_nsubj
synPathEvType=Business_prep_of
synPathEvType=Business_dobj
anchor=crumble
anchor=verdict/n
prevToken=suing
prevTokenAndType=Justice_suing
synPathTypes=Justice_PERSON_prep_against
chunkPathAndType=Justice_precede_find
evTypeArg=Charge-Indict:her
arg=terry_nichols
evTypeArg=Sue:companies
evTypeArg=Sentence:sam_waksal
arg=Basson
arg=Dell
evTypeArg=Sentence:his
evTypeArg=Sentence:him
chunkPath=precede_find
synPathEvType=Justice_prep_against
evTypeArg=Charge-Indict:executives
evTypeArg=Sentence:He
prevTokenAndType=Justice_Trial
chunkPathAndType=Justice_follow_against
evTypeArg=Sue:Dell
evTypeArg=Convict:Scott_Peterson
arg=executives
evTypeArg=Sentence:your
evTypeArg=Convict:he
evTypeArg=Charge-Indict:she
prevTokenAndType=Justice_sued
evTypeArg=Charge-Indict:they
prevTokenAndType=Justice_this
evTypeArg=Convict:they
evTypeArg=Sentence:he
evTypeArg=Sentence:they
evTypeArg=Charge-Indict:he
anchor=find
synPathEvType=Justice_prep_for
synPathEvType=Justice_prep_with
prevTokenAndType=Justice_serving
prevTokenAndType=Justice_get
prevTokenAndType=Justice_over
anchor=prosecute
prevTokenAndType=Justice_because
evTypeArg=Trial-Hearing:judge
arg=jury
prevTokenAndType=Justice_as
chunkPathAndType=Justice_follow_with
synPathTypes=Justice_Sentence_prep_to:years:num
evTypeArg=Sentence:the_death_penalty
synPathTypes=Justice_Sentence_det
arg=the_death_penalty
synPath=prep_to:years:num
synPathTypes=Justice_Sentence_dobj:penalty:det
menType=Sentence
synPathEvType=Justice_dobj:penalty:det
synPathTypes=Justice_Sentence_prep_to
synPathEvType=Justice_prep_to:years:num
synPath=dobj:penalty:det
synPathEvType=Justice_det
prevTokenAndType=Justice_faces
prevToken=faces
evTypeArg=Trial-Hearing:murder
chunkPath=follow_on_charge_of
arg=obstruction_of_justice
synPathTypes=Justice_Crime_prep_of
synPathTypes=Justice_Crime_amod
synPathEvType=Justice_prep:for:pcomp
menType=Crime
chunkPathAndType=Justice_follow_on_charge_of
synPathTypes=Justice_Crime_prep:for:pcomp
synPathTypes=Justice_Crime_prep:of:pcomp
arg=treason
synPath=prep:of:pcomp
arg=corruption
evTypeArg=Convict:murdering_his_wife_Laci_and_their_unborn_son
synPathTypes=Justice_Crime_prep_with
chunkPathAndType=Justice_follow_on
evTypeArg=Appeal:sodomy
evTypeArg=Sentence:sodomy
evTypeArg=Sentence:corruption
evTypeArg=Convict:sodomy
arg=sodomy
arg=murdering_his_wife_Laci_and_their_unborn_son
synPathEvType=Justice_prep:of:pcomp
arg=murder
synPath=prep:for:pcomp
synPathTypes=Justice_Crime_prep_for
arg=blasphemy
synPathTypes=Justice_Crime_nn
evTypeArg=Charge-Indict:prosecutors
arg=prosecutors
evTypeArg=Trial-Hearing:prosecutors
1.022350345102322
1.1247456608470907
1.6621929248574139
1.022350345102322
1.6621929248574139
1.022350345102322
1.7700186931489743
2.2642630222769133
2.911666783267436
3.3909440995905547
1.328976691913106
0.44725072733474713
1.1252410301069182
0.3034297594338565
-0.20383234792799262
-0.4138084923123562
0.5533735393338151
-0.46235706510942226
-1.3992142839013493
0.27518378999809373
0.09360957365126758
0.19936299028616192
0.5610646113625984
0.2707907697105291
-0.5089515268559445
-0.07580596542467832
-0.31408370853961537
-0.6452890516587824
0.02924348707387456
0.40567340045840944
-1.0779865315480783
0.10641497170797627
-0.23718787451149076
-0.23162061835918016
-0.8771934095369089
-0.35280152574551715
0.09212837610846822
-0.9002764124228396
-0.5301334173599851
0.9876611231719377
-0.33292500744749953
-1.148613772570194
-0.12631804177233047
0.0787584003696171
-0.35163016699032024
-0.5590254636812708
0.14345910634460013
-1.6584492020026487
-0.2846580373809815
-0.7975224475609566
0.3219448674838895
-0.6456006352945646
-0.6867933838004119
0.3996992284241697
0.18939833001580642
0.15114338934586974
0.15553837151881697
0.20477629720696208
-0.30785834566225717
0.41516700452310223
-0.020646898948213994
-0.1961814844144702
0.15664770057745175
-0.5136436369384191
-0.4618340196502236
-0.13423086272850282
-0.9197895205441984
-0.7412082980432836
-0.6269175624442643
-0.21373693094165422
-0.27869743444343
0.014310909662327627
-1.0786399651728118
-0.9926311867616336
-0.29778521793783225
-0.37079994794244847
-0.4136979928397426
0.16118204695403288
-0.046698442434478224
-1.150889686696388
-0.5369902629916158
-0.8955404916993663
-1.9610171276427963
-0.6647491610203465
-0.8426776205324767
0.4661483559962622
-1.1721857875052595
-0.05535448381862325
0.43448265985158074
-0.03807213814046722
0.45839429657847214
0.5365584682717198
-0.16210574647106268
-0.38128960378579485
0.026491662504947618
0.18471853365977275
-1.0453159834794004
0.45603703797146117
0.28776295932079204
-1.0597307706063845
-0.5937473671965716
-1.5037095211447589
-0.663294758175345
-1.515213722062284
-0.8915314860266709
-0.7667204249667117
-0.15083951318741648
-2.710667078287266
-0.4177576593007845
0.0448759196268161
-0.4080772683705302
-0.49247886559285114
-0.18918580931922085
-0.9049482893465055
-1.396945051493262
-0.2345260437304695
-1.2337558239464912
-1.7801660977792197
-0.5882707533749969
-0.46331772679981287
0.6308640868894047
-0.4407356986061636
-0.2285045563495692
0.48649403585023926
-0.06738433253542192
0.39694624970952996
0.41641834521848436
-0.1337084973441998
-0.9171850274777107
0.11268625267432794
0.10637915084040582
-0.9737044664489656
0.03780835902885991
0.2733470767685965
-0.5793629980584537
-0.048147973779430295
-0.6200584435592676
-0.19541521344264665
-0.9034833924678874
-0.3015591466322213
-0.6392192134873427
-0.5053148684851669
-1.142621541450529
0.02688452412284043
-0.8727038892505931
-0.46246909778756123
-0.2814217691176824
-1.0786180957576905
-0.5607643771433917
0.055749283629259815
-1.042911055813332
-1.32406622138408
-0.373393678517265
-0.1541002884905703
0.3699614901807513
-0.5498275751042825
-0.17720235564131487
0.351559161934652
0.3602559187472641
0.2944893981871196
0.5101223308523599
-0.027183132419002203
-0.6741317808776589
-0.13900513726697944
-1.6641897582862146E-4
-0.7396687449482404
0.058363249493236034
0.23729056662209724
-0.9368501047779932
-0.2933056856890605
-1.9712939491039971
-2.9943431449892954
-1.5985318478323292
-0.351754456256259
-0.7290978159940686
-0.033975916576657834
-2.391748736515352
-0.9803437659310802
-0.6647671224982702
-1.1911454667026464
0.03339748946788646
-1.1012729837199988
-0.26031392697854855
-0.061792646249301975
-3.674262714828489
-2.434637871917216
-0.01243395605470546
-1.1629532427171565
0.6289228952104672
-0.9575194245427803
-0.5154500902142639
0.4165210396059011
0.022991995061361993
-0.1554330446045927
0.4961624887705809
0.006541052312857868
-0.6899451208260566
0.03750972584745066
0.15320107481987588
-0.20828611482006557
-0.06950335468395444
0.37263808877979143
-1.1397830951062498
-0.19171096754027608
-2.115959050479884
-0.3136412215359351
-1.4782283548631883
-0.6723217671495257
-0.5797540708710294
-0.731941284790284
-0.8768909502692537
0.27970443769499015
-0.3565336419218601
-0.5094372821879135
-0.040504570541652005
0.0649207657655862
-1.7854648679198035
-0.15592171853771467
-0.30735896748871233
-1.3316031007267792
-0.05954203209112406
-0.1370065945352177
0.148996319273746
-1.0907214112976036
0.17816867148975282
0.1922956210058496
0.2214043167202676
0.41557720970445194
0.29994481060259315
-0.13192041420244052
-0.4804778617447001
0.02717646350652269
0.07021119135041075
-0.4115238349854482
0.25789931725689086
0.09036825356299567
-0.30800795714842083
0.06676491260538875
-0.9088125007211653
-1.0920748067821486
-0.9774204524547501
-0.3926759046882646
-0.014408388704708184
-0.01429382827205013
-0.811807943346794
-2.366868970589564
-1.6911318734187677
-2.22598758117464
-0.13347845536086567
-0.6610589114490132
-0.26907129998640117
-0.21975943073846477
-2.5288672246843515
-1.2905223117118365
-7.686133532022537E-4
-1.159441905064184
0.21425802739812083
-0.10652331058891996
-1.6699690934443372
0.24970564518403537
0.17797570906893515
0.39140576878372296
0.13653372617424475
0.04324665329302593
-0.2671082454743147
0.17861316244859876
-1.4518572777956744
-0.16623386620850777
0.28787136203488245
-1.4695719388539958
-0.05361559841390849
0.2508293959539527
-1.7767364837408124
-1.3327406936912425
-1.013249478141786
-1.526128522540945
0.30717304559500574
-0.15750292065557683
-0.0015968922035292242
-0.1837604887999953
-0.09837757907353428
-0.3812925365870862
-0.6814174386261386
-0.10981856523733477
-0.8996160489424129
-0.9104716121189943
-0.7579330049874791
-0.6645759319176177
-0.1278503810092679
-0.19612799466833725
-0.5198147062706605
0.5761950117036914
0.19089246510848107
0.5548066790774514
-0.7222024335274356
0.4622528243570117
-0.2391595105536001
0.12310184868315359
0.18251974572769641
-0.1862113208871049
0.40231258759941696
-0.2195900925313819
-1.3063772620876184
0.3393317451221437
-1.206806240191291
-0.4405362909286399
-0.37435259909627283
-1.0056599653669522
-0.4205912888891366
-0.40993812942694613
-1.189066466149428
0.32646692513610515
0.4819821512081863
0.011041801493396146
-0.24771587993090666
-0.4810636107019512
-0.2205763617211761
-0.28472847907910404
-0.349219495052561
0.3782753813092827
0.3804955236736902
0.38068922037406977
-0.3011598667481454
0.4181381906402469
-0.0963679872377127
0.22062664954383115
-0.33524709138231246
0.39852984977625333
0.3052387139210433
-1.2678051211515275
-0.2031942309217048
0.11282893450274836
-0.36027139323068097
-1.6159148492181334
-0.978371607935623
-0.29188185253231974
-0.8145375166960854
-0.8404291509870726
0.4662150414811062
-1.0997174515409258
-0.7574402929010943
-0.35888076310265365
0.12620292994092658
-1.2927578125284727
-0.704295175712821
-1.3918420705094485
-0.4587082049512554
0.2980283830457201
0.47570809794335667
-0.47244290441724995
-0.9526701602277953
0.2817669283961036
0.2147164401616032
0.4489975609188848
-1.6219561156886133
-0.08401222963757732
-0.33523331526782274
-0.2605171904598889
-0.12080153966749128
-0.5732217742840517
0.16387261935840605
-0.1538266468155957
-0.5878622096956141
0.25867934168956763
-0.45373487434421567
0.1350674170725372
-1.8299578478773777
-0.09486885330697725
-0.35310780127868546
-0.7555065570018595
-0.7637106869370459
0.6907827873179265
-0.8277251421606714
0.046596057504648514
-0.2995192274077917
0.4550158998830991
1.3038256179418204
0.3753340980800974
0.26863157121853726
-0.060491098196453826
-0.576329502866167
0.6431827376704923
-0.7760494768547775
0.7806783195120918
0.3113073740511092
0.2574563625962053
0.02597767547794827
0.3262294284155821
0.6351022361563724
0.17711749474083424
-0.24746914816407908
0.3187076569608735
-0.12507009631466426
0.0772778903371043
1.1934761750749487
0.1688680488521403
0.39293755903769
0.891237887806756
-0.5533973477681252
-0.027776840315093858
0.5558105426892612
-2.2883340616204864
-0.07961031607256108
0.9856246954116128
0.05967152323982
-0.37399169853761904
0.6606922996811095
-2.200860383482722
-0.1642788271106711
0.022252432516128108
0.22331403082665957
0.2958512106325992
1.1774072772659223
-0.19014841814569586
1.1143238499908912
-0.16329457605989034
0.23995269122443003
1.175328033737373
0.9027921788125689
-0.22691111105062656
0.4910690182773719
0.2499629803516319
0.46333433300040655
-0.5117205899326053
-0.08052949054697418
-0.426970951493983
-1.4208345595312484
-2.0848570119178267
0.1556590337390066
0.5013022495775475
0.3683528668957385
-0.24517927271324053
-0.43925053086069477
-0.6494743723289073
0.36511681789448325
-0.9970538309577756
0.35997160608348333
0.009187380309615804
-0.7530415852891468
-0.11436108417696883
-0.010939066284718836
0.05807018036955227
-0.614326242882582
0.3726600719500694
-0.32846654302249917
0.44268333842410085
-1.60340470647867
-1.9402153151690997
-0.3430226064433427
0.7224894785709058
-1.3445749224187344
0.6681231846755277
0.16104598975870366
-0.3820428980080954
0.48444647170426286
0.213537914173546
0.3317561285078112
0.4359038473127069
0.6530188846568096
-0.3779623682805436
0.3533287564391315
0.6093974415450454
-1.3797277814213962
-0.29013437214920273
-0.5328841225308995
-0.6036298399183063
-0.2238264558957426
-0.865340229401107
-0.47022891909296716
0.8959168421462542
-0.012513441103628396
0.24140790611980026
-0.2808398119027915
-0.10025541177817499
-0.8531840148887884
-0.6376449974357453
-0.3708326722598819
-0.5382718871176055
0.7044911418537362
-0.15958286831710075
0.05534462320067451
0.6103032654394414
4.203639968420631E-4
0.9612515482226659
0.5907866200945339
0.7671921725889848
0.2853351814494263
-0.22528572398073177
-0.14254617209145992
0.09096331608455639
0.6131508638698521
-0.8967913064529656
-0.4284237428719228
-0.8882755672330623
-0.21834867923300014
-0.764789847330324
-0.49590930305395237
-0.7891432134235419
0.34995196455667194
0.3053008387934901
-0.6085490705909861
0.45029520640133763
-0.855896825350606
-1.0000329345822483
-0.15767750975752917
-1.704423231615052
0.603039865701742
-0.030723198611021508
-2.181031155621231
-1.5494015542802686
-2.121015194975932
0.8230629337425119
0.6439151391985779
0.5205516100629861
-1.6795077492795494
0.5092476502733394
-0.9205738503155455
-1.0085919363806084
-0.45730895589677345
0.3395932041147252
-0.1841430447295053
-1.157228552262864
1.018205263637603
0.030812608064567842
-0.8422260426730143
0.9151123235207754
-1.0006910438225183
1.060439316712835
-0.10163972276153045
0.09092404513465385
0.08437070173058452
0.36578153796844975
0.11706568266963661
0.2610279885200935
0.4356116045075172
0.38484575927542636
-1.3638221225107026
-1.9939043371644616
-0.7634036272298512
0.2340128787320834
-2.27543972197833
0.21874090418298345
0.2316130743514508
-0.9234252983606599
-0.22842071436180778
-0.7048791008681965
-0.8186045298789795
-0.9044776253664123
-0.20435207230866337
-2.2450248445837455
0.053648452858583676
0.4252536297200004
0.05838859778984667
-0.17216666110133422
-1.6833065573601491
-0.08037301361926372
-0.41128059997393374
-1.6374241827832894
-1.5158177331754903
-2.2395281831694556
0.855100885356154
-2.0068654602728997
-1.3750156756435055
-2.229774904927524
-1.9398072011293563
0.6274041229707243
-2.396438505373483
-1.4729789176657802
-2.3429972243092925
-2.0956230488086245
-0.011790482177462158
-0.852852738458421
-1.5865822997123802
-1.5742287427570583
0.04577784481992575
0.05075417884602713
-1.3471429045404641
-1.776687312742815
-0.5650294731852646
-0.5354024237124275
-2.230372238099646
-0.5231159156747592
-1.8256304574309743
-2.3423078531895727
-1.0122236029891298
-1.3785274687372568
0.14189764965633658
0.804037826220825
-0.1185585341576763
1.6286627580300972
0.9010474093814737
0.3885484627288734
-0.5312110810280383
0.9891990683282087
-0.1747975670103134
1.0496030791729054
0.23409788987263924
1.306156963267342
0.5617169532816962
1.3171554865750603
-0.20407470937019498
-0.0635867507050322
1.2233924922057386
0.41837792501373827
-0.029959715042011097
-1.7928287769642202
0.9869080333641679
0.6401123760446938
-0.8029650122440207
0.25578915123342477
0.3993790786513022
0.10134385424696206
0.336360461004653
1.554148506889946
0.22677248420140117
0.6441732526621204
1.5214832951949278
2.167619924440272
-0.22756640908896675
-1.053662442927307
0.059477669508446664
-0.06242843576531572
0.606091160603208
0.9789769674667482
-0.3908864274670858
0.561001902405386
0.35448376951376054
0.5506291024353733
0.3995336611164917
-0.6888002678117179
-0.727444880020755
-0.11145814979386975
0.5627246405377729
0.4606863862126701
0.5650907304010432
0.8036231793160217
0.4569040069533847
-0.4772517253823525
-0.015141278217841522
-1.1627656982081156
0.7086104553432884
0.45508931122987883
0.4969589678723926
-1.2339972655475069
0.5755448047622973
-0.1544646500022151
0.24776640492526728
-0.31152291737859883
-0.04212686094414178
0.868809207214663
-0.4364052127816521
0.3513762311926303
-0.6410965709002335
-0.3403587490292039
0.6563299558267519
0.8156574536826547
0.2111038525599655
0.6438166579870794
0.1082350657545315
1.0384261865704791
0.6115560351718382
0.45480697845684737
0.5213827965266197
0.6875854122985715
0.5001625524471649
2.115511142782207
1.2840586953002056
1.2443561714281113
-0.14242097519102628
0.3274956076395232
-0.06495506083356987
-0.12914677881124875
2.058535730118749
0.045398687232573204
-0.8127854107137875
1.3937990420112587
0.2734281456485036
2.056185580308708
0.06081463190415393
1.82735056437506
0.1618759207243869
0.656061291121046
-0.5396285107135896
-0.42205286797040614
0.9301323919520986
-0.7554905245892923
-0.45575987510871735
-1.3676026050729755
0.7179000631134315
0.8716185014889372
0.6141177949345803
1.9134086652388067
0.5527221318105346
0.48909494399712505
0.7168233510053453
-0.05507609565018318
1.5007033590577061
0.7756218227986409
3.0616619398059624
2.349363207937499
1.8134392799832046
1.3628041290487733
1.799779414579291
1.6811074747991754
1.2040977384277387
-0.0635080259561964
0.3709091035537463
1.5881075575610737
1.5442580632673832
0.9726193439219761
1.4302757966352324
-1.363831509369281
1.1960251982260213
-0.42300930705572465
-2.256618074985212
-0.9146636422823131
-0.19573075286124206
-2.0037730555911804
0.6311000717725116
1.0809407177414359
1.08536807490615
-1.0525885609650392
-0.34439166461854576
0.8212743368552301
0.6392572703323645
0.9377389255911365
0.5548924033785692
0.8439500017344581
2.277043163698193
0.5564634648140453
1.8964869342167894
0.7610929206211662
1.1917308632633314
0.9157199344335152
0.7947345240665268
3.3934240259863038
1.8874849530043305
3.121151562650939
3.1417503859604126
0.42838724043802967
1.473125951573478
1.2193419849138272
-1.3578385669733533
-0.07064477578874301
-0.4959500067461687
-1.314179892394944
0.871436995819324
1.561595040166679
-0.7730978101186966
-0.07119532889786136
0.5866656998413192
0.7256357412823459
0.1513984104527133
0.8922686089592726
0.503523297408945
1.037408516361177
1.2843217385710775
2.0088136428326955
1.9855719925651951
-0.33437341056479775
1.543307892982258
1.5949565545442315
0.7144578567230163
1.8840208174586506
0.9507802399191324
1.777330778967261
1.1547449848446139
0.7580990060984557
1.644121868059509
1.45400745525358
1.9180901526310414
1.2929145457863656
2.3601252893240754
1.6292027197288341
0.0766963018349977
0.4343352741072318
1.920670941863742
1.7894222992639082
0.5504361035878785
1.0419508909543174
0.31997316650645463
-0.6103138718383625
0.13555681204096928
-0.5351950225464391
1.4128136689330018
1.6986735092919898
-0.939225563934393
0.4340188720092259
1.2110720589537383
1.8273463882756547
-0.016642622797888713
1.1553886723353617
1.0670163151644396
1.1989052189365406
0.3383855628533582
2.7644794549532876
0.9818743568875349
1.2011560384194901
0.5406326057812438
1.6580679204951572
-0.219319231926949
0.14566468438264005
0.1896255096767757
0.8953610514499025
2.0548919532920067
2.4587417207123843
0.22995781575674862
0.6226786023450062
0.6701539174428067
-0.15292288227248427
2.0993184589516343
1.080432023778823
2.2777810481391936
1.0524082319034833
1.9697093289242054
2.8568055669712407
2.2732341254486026
2.9176581130042085
2.621452208811095
1.8697795353857258
0.9432992644279498
2.9409096045594456
1.9306375998156928
1.8367393826121867
1.507075343368896
1.2970205415061156
2.5611165215744136
2.9352283642265298
1.1551655002295984
0.8646550025493548
-0.2607853879472474
0.9364763078201122
1.1214608766965748
0.31794154198694885
1.0993489754676538
0.43672397131492624
2.503830357692149
1.5112629666484467
2.5904487605411703
2.2299553586151966
1.180587370290134
2.6239028592752742
3.74183693626079
2.8107501234087575
1.4776805868438732
0.4325755488820691
2.2135085115670368
3.823681842781852
3.9694103767080424
3.657504043070018
1.626200548807832
1.8950512085686986
1.8911387280626377
1.077858762429628
-0.14685628128806816
-0.5730281340231794
0.9261449791514778
2.6422362420074794
1.451370732445053
2.6121254729426915
0.984712474179875
1.3195037724228103
1.9762331073372064
1.4625317001299831
2.5179008623333123
3.13849760285209
0.891528490523
2.586263033836901
2.594196230355474
2.5523738212913956
1.5086053223576177
1.6165926266033626
1.8535413903364437
1.8143698769420569
1.5031002609383688
0.9818547358145631
1.596727763650357
1.5671111010091718
1.5733430546360871
1.0429881327238542
2.755335622035762
1.661022610374113
2.0623779407737373
0.8105031343422605
1.9560892645860508
0.5590651610611387
0.9690812293357722
2.2621054547357624
1.2151386805140327
2.075364753825811
2.7120319669726545
2.8466358762200454
2.111427523926542
2.901948449502668
1.5101656202768983
3.207873838802663
3.009766122033198
4.129640716894188
0.8381877329937086
1.3009130014645631
1.714833487972369
2.749732602032496
3.057397761668016
2.292671216007214
2.195855999163045
1.051549347558693
0.6332368636369837
0.667612020023431
2.552340210915487
3.273796693361419
1.1374489143749502
1.238585136254435
2.8191399315120687
1.6007382320016115
-1.0045416827902849
0.7637398873862281
-0.7212217858085016
-0.7479888797448306
0.3853942759943069
-0.6908704397791016
0.22150417129035127
0.2835163734754042
0.19526773864854274
0.14896719472930547
-0.18891778586021643
0.48170778224791705
-0.44147583679493935
-0.5416523240002057
-0.5580275859686923
-0.48659177601453335
-0.4705200632697326
0.2761992907727141
-0.3092546265780245
-0.008124524498021243
0.45871816266165266
-1.0753269304823163
-0.049020544262996256
-0.37570409062492155
1.0449135204363242
0.16520251622095386
0.2073564648219743
1.5806160790857107
-0.06201223241606461
-0.6546491901148161
-1.2757910945286464
-0.018986370730410842
-1.2367230782408927
-0.2372943146255797
-0.29906781313989517
0.3354065094697655
-1.6353672229257892
0.43343397650258064
0.4161112102825049
0.327617478610779
0.20594619883050574
0.4441241508078272
-0.11102223985449677
0.13260027582988118
-0.2902984262273739
0.41210191091944026
0.2948726708592109
-1.9475505034755913
-0.2837687443461367
-0.24454345014972098
-0.5015197880626441
0.17055248908220924
-0.28039377402965143
0.06786185802260543
-1.286972680293819
-0.4806806079954599
0.2550513382349384
-0.41453306194759787
-1.7259095478467026
-0.05125809264641622
0.43232335467721766
-2.248132416336383
-0.448454161719772
-0.6239053163261749
0.35984377621381425
0.4442366202423061
0.7048451439074294
-0.7818069244778713
0.41993019662456454
0.3383675358499634
0.4114948332716189
0.251203720689565
0.5623525424420384
0.08741510087621138
-1.037407734487838
0.02074252491395607
-0.17389680017158024
-0.5245574959260315
-0.262157562848084
0.506649869272355
-0.014757029254122395
-0.13869322379785537
0.07244177091499183
-0.309737414940319
-0.4757339132313636
0.03227313876492707
0.10856968508153424
-0.5494054601416942
0.4388796528136795
0.6061009937453142
-0.7338489762271687
-0.2887262389471222
-0.14096400735822265
-0.32453199774216296
0.25697424400792773
-0.7242895552424138
0.31687797552253555
0.41744618358622837
-0.2884422892613857
0.25677857572683627
-0.9099457881073619
0.20115665907637156
0.31925930135550495
-0.5102480090459279
-0.27798623473057144
-0.5119534096964994
0.6405161038486651
-0.6106297194904321
0.4369036290871929
0.6530742417431962
0.42957036234640783
0.25399282013091296
0.20595032243426528
0.5975972921702086
-0.2119111091853945
0.5839938838077108
-0.1988405384204644
-0.01703305494904333
0.6183009624992205
0.9576497702732135
0.5999935866664936
-0.9008391916925926
0.2544397032861543
0.744665640959526
0.7971173346067408
0.6353028955104953
0.7061918973839043
0.06704134407719807
1.1014700265211368
0.12528266655558712
-0.4401506803921239
0.20353593993414507
0.5442390115273644
0.10099349380899349
1.1186432112249374
1.041830871789034
0.22851762376044646
-0.2689474433089882
-0.2037580077355867
1.0738385178389072
-0.8584018889477156
-2.399348312722594
-0.18160860974665144
0.2797033008100787
0.2921538726126003
0.045961458295456115
-2.1733180863116135
0.7346445471303569
0.1952620610629949
0.20937892690250395
-1.3889648403346682
0.2732973405994108
0.3364317733402689
-0.4325304225045024
0.11381008212557056
-0.39052678029049687
0.09315499694965561
-0.23651436054575598
-0.16983807150757127
0.2090631901000802
-1.3143719124456708
0.11903439657257486
-0.6808689931241633
-0.2666377950254964
-0.17990115947541627
0.9242239454662539
-0.24324238637792372
0.35683471650509957
0.5199153398627196
0.586571800611777
0.14700404887593738
0.4907519277716602
-0.141376439671768
0.7012294421380396
0.24791996471019184
0.055071774056544336
0.5507502741595389
0.7582049657842731
1.0578250587252007
0.5434642559175563
1.1806215101997835
1.0375333040162844
-0.07234406954157126
-1.3569038029710956
1.4427524386592574
0.7796568322049421
0.3730058434189522
0.7788261682314837
0.28961009712874874
0.4512452730883308
-0.2352148969639831
0.8106656883280728
0.24096894794871326
-0.22686753005715218
0.7484848285834209
1.234071281248445
1.0963634073867847
0.8315819663650509
1.3083756414042045
0.2884682724445219
0.6304210889708898
1.2494141660789693
0.9517357663792909
0.8275986939040455
1.4675608953731913
0.21411402288621076
-0.13276457113989987
-0.4167021465568558
1.0450108608655906
0.4373696586724406
0.695386550608658
1.2340345252846538
0.7802988970242221
2.214088243315094
0.7935026880186609
1.0522256629044775
0.4176740698031951
-0.0957160213414949
0.7029236092735698
0.5046848860514215
0.5878412626101444
0.5158580678683942
1.7874584404115876
1.524453315622986
0.20393631332466514
0.9197217242238109
1.2052942912319684
0.06224925322435298
-0.4450066512849775
1.7738326775589721
-2.3837112053845253
0.3557118433071984
0.40155292325594516
-0.3287372672269855
0.7409755485901549
-0.11165196316141213
0.8816140687858995
-0.12174666292240141
0.06002311628585804
0.9614810264142236
-1.4016990294963065
-2.263471860735232
0.02246809103392182
0.11548701106710045
0.6161589660040787
0.9933979370781373
1.1945399078983376
1.3931408094407165
1.4255870474532215
1.1455660199625595
1.3484267554099996
3.7130382032822933
1.7033320603943853
1.3259895787228728
1.7157238176749166
2.0321260754155936
0.9432780191839213
-0.2422953807719136
0.431540485682017
2.1641114061856337
4.04041973541097
0.1700800566271922
0.3016522816433451
0.33288694268142877
-0.25612293123936125
0.08189798067123281
-1.166168564688189
0.756577316237939
1.823941152313106
-1.5230414279128426
-1.1124935383170114
0.9471040910831326
0.9465273987686861
0.14054762923396275
0.6739095948438358
1.1791533943778474
-0.9311161097138844
0.07157324134295491
-0.388962891006427
-1.0121060577662115
0.7500951579480062
0.08535375165282016
-0.5167967470587498
-0.8293778149363393
-0.38318266942004614
-0.041541888237738314
-0.20217681176796728
0.2719865677424705
-1.4895326974345693
-0.6066974224501636
-0.09327960650921911
-0.7485750436531876
0.4959314587597366
-0.2626881987778251
-1.289147192452499
0.6417695945722872
1.4784216370201824
0.42017912967344845
-0.1725256410905982
1.0840976875550736
-0.4625410437576348
0.0950146896546363
1.0254982309908178
0.8900737192972098
1.5775129601031352
0.4050159470011288
1.0190306821963018
0.26384302010197536
-0.33460632514829425
-0.09230838306646025
0.2563666041850587
1.4540506896660106
1.5790537408273566
0.5138317910469684
0.7795895747530085
-0.06668947482907639
0.25330280671630656
0.8200489569919966
0.9271021489766017
-1.1034571892365932
0.8420439763066813
-0.24787692543054157
0.23866509067258398
0.2008252314541331
-0.25372554106980083
-1.3749142322917924
0.9316978590347536
-0.5338391442773803
-1.4049772900075441
-1.7438232106046843
0.08527521968056154
-0.6048639940907858
0.9011335616307264
1.1068627795446389
0.8191738874669258
-0.45951408431415924
-0.5238399026004238
0.6913074679291021
0.5567673485298803
-1.278242434527809
0.04291380755156847
0.02431132509264879
-1.325959779841202
-0.6047434398130206
-0.10623064622903018
-0.42341137588366573
0.44092326719131
-1.563840580480755
0.837437604385132
-0.4663895973725161
-1.7143323377555257
0.02047177078332057
0.28433790737024195
-1.03818664188903
0.05468303800374307
-1.0830992618098603
0.09485082683324633
0.5157123999183401
-0.35782351123643613
0.07239575939255175
0.4773630377569448
0.7091115614777248
0.21959853732217693
0.9790932343935687
-0.43447338839724053
0.8017606134158023
1.1354225460265248
0.9180686346499427
-0.09214632167979214
1.5242620236354265
0.6972498575297801
-0.2710907604455968
0.723391685871239
0.7683905109303855
1.047861914423697
0.7730354990755948
-0.12383887008659226
0.819577925652195
1.1130516826415222
1.5752912281437652
0.5933849127001167
1.3655264146611754
0.3208939065750905
0.13954078818175364
-0.011785887040744809
-0.5744747180088261
0.7883935728273962
0.9946387388036088
0.7653892760161327
1.4135615390784055
1.8020263292231888
0.36906931051568703
0.19792243837945794
0.008143521219912362
0.4150048194773193
-0.23803647015631793
-1.076954715368995
-0.6855325806478962
0.3000419269692602
0.573151941562715
0.46964162678467347
-0.3624964641505853
0.7152721311151086
-0.13151787732436562
0.026042507957174516
0.11157903194039887
0.3446003949362872
-0.1336471774891172
1.1598490462006086
0.1034509413634544
-0.275111653076777
1.314596787955183
0.7613423763876663
0.7289694312777314
1.0008032178642559
0.286009914230519
1.1984611977378978
-0.31941804796339074
0.24796944763051895
0.6115636864423999
-0.128104242684451
2.2521950447558083
2.389683574761437
2.193975531960116
1.0694549839683523
0.30924193708865116
-0.08762221490805636
2.7747966651413676
1.0990402850733667
0.8002057249900024
1.6247327445150315
-0.24449540741429243
